广义,0.003297081,0.029156825,0.021949623,0.21395549,-0.0089484425,0.064247176,0.3679697,0.101089515,0.24300124,-0.25514525,-0.40283522,-0.066652566,0.011899683,-0.067801274,-0.4563826,-0.14615184,-0.28255194,-0.16658002,0.2171479,-0.13459016,0.1068302,0.37456545,0.19235772,0.06521736,-0.21937074,0.01886727,0.0101374015,-0.1373422,0.030941393,0.20863214,-0.06369625,0.0454688,0.20408604,-0.041565698,-0.11975959,-0.2581404,-0.15148786,-0.08381841,-0.32927135,-0.2365588,-0.37424263,0.26522362,0.05300652,0.6223409,-0.01752942,-0.48173386,0.08124151,-0.63502294,0.22601175,-0.08167478,0.25517535,-5.379413E-4,-0.14177628,-0.34849915,-0.1444806,-0.09710472,-0.04806587,0.09331335,0.19755861,-0.41995183,0.06757267,0.54938644,-0.13581619,0.22066148,-0.24104978,-0.11583728,0.47490278,-0.14742076,0.2413177,0.3894236,-0.09450084,0.15218557,0.073424496,0.35924327,-0.005344297,-0.16042295,0.03545789,0.18157995,0.2974418,-0.15198198,-0.2467285,-0.19530545,-0.20160757,0.0020543218,0.35765052,-0.38585755,0.3397531,0.1152971,0.5202852,0.21769881,0.08344213,-0.0751075,0.107252516,0.011353831,-0.22288421,0.19339094,0.23255257,-0.120556034,0.09791785,-0.42611256,-0.066312194,-0.096649446,0.19042286,0.15836695,0.56095153,-0.057868104,0.5334304,0.023247212,0.15117398,-0.10899391,0.049517646,0.22410654,0.32100958,-0.3003693,0.10360515,-0.15409708,-0.103879206,0.069881804,0.30996612,0.3755268,0.056393314,-0.16574334,0.1354298,0.12478248,0.24038458,-0.101455145,-0.054694775,-0.12410871,-0.15092716,0.35959145,-0.080546066,-0.108522974,0.29966936,0.043113284,-0.07201568,-0.19003835,-0.41242215,-0.2465773,-0.13317308,0.6670768,0.2253836,0.358036,0.14868446,0.14211051,0.17986436,-0.011148833,0.6295135,-0.2724467,-0.017295439,-0.034673087,0.1359488,-0.12301194,0.2153381,-0.10825687,-0.13520785,0.07365573,-0.20877634,0.08426775,-0.19439435,0.41570684,0.27658027,-0.4523598,-0.09767677,0.10060194,0.1720959,0.13974033,-0.007636218,-0.06657488,0.04651283,-0.3469859,0.13195497,-0.21617247,0.15003759,-0.10048899,0.21325271,0.11845967,0.10092656,0.1410023,0.19365324,0.06855971,-0.34186688,0.21660468,-0.012105707,0.34602448,-0.39103147,-0.28825846,0.1369624,-0.12483286,-0.22965217,0.32172793,0.20831183,-0.07735591,0.04458634,0.039488483,-0.077873796,-0.04303534,-0.15487087,-0.13587257,-0.3151627,-0.2228693,0.05992754,-0.009286405,-0.20139086,-0.10273969,-0.20440784,0.06433144,0.0074187703,-0.07854321,0.12557004,-0.0073302775,0.11841427,0.023210552,-0.3727213,0.053296857,-0.020946251,0.3049287,0.22087854,-0.18641475,0.26204214,-0.17559107,-0.29452002,-0.009330262,0.32422483,0.38772833,-0.12233985,-0.03657888,-0.26411584,0.2950349,-0.014746283,0.2696689,0.2543502,-0.3806798,0.01885962,-0.005675891,0.16673294,0.14618017,0.14252296,-0.045191422,0.03878467,-0.10270713,0.14559989,-0.22381051,-0.1224189,0.10280957,-0.21327202,0.27765045,0.1490459,0.17227285,0.15145177,0.0679066,0.14723885,0.14563698,0.076808766,-0.017166583,0.0019649526,-0.07498919,0.008329242,-0.23790254,0.08418296,0.38922366,0.5213977,-0.39733034,-0.52358675,-0.06801284,-0.14315532,-0.2947399,0.044965368,-0.13997313,-0.17180179,-0.05362108,-0.11171427,-0.41595283,0.0769293,-0.05100061,0.18628027,0.18613976,-0.008995296,-0.18913618,0.020398282,0.68642217,0.0038900657,0.05255543,-0.05769671,0.33882868,-0.0249902,0.20222376,-0.0224754,5.6166144E-4,0.03400388,0.37063265,0.3724328,0.42362535,0.46324664,-0.06955681,0.028124556,0.08645157,-0.21680652,0.16869357,0.14652891,0.053160917
钟爱,0.120891266,0.34067577,-0.026794482,-0.017082877,0.21253255,0.079551056,-0.25747773,-0.019544572,-0.08413094,0.15355575,0.024077667,-0.02838869,0.31570607,-0.1700561,-0.16094269,0.05797266,0.024993842,0.09715082,-0.15268055,0.012591605,-0.12547521,0.0019046178,0.096067816,0.23592176,-0.35212618,-0.25279048,-0.19688398,-0.044678323,-0.123525575,-0.04034903,-0.1989246,-0.0064920657,-0.10459227,0.07704665,-8.21923E-5,-0.15137808,0.037779577,0.11511991,0.056950483,-0.020720007,-0.055015832,-0.1560956,0.09487506,0.34255758,0.19390984,0.040635794,0.10926943,0.10864402,0.01802509,0.25855294,0.03626055,-0.2769909,-0.18793441,0.09605693,-0.076659545,-0.10975854,0.17152542,-0.22910272,0.021296592,-0.12992427,-0.030884212,0.09092572,0.020533146,0.14150949,0.13830405,-0.041097477,-0.17160077,-0.07916307,0.03927427,-0.0745942,-0.23843437,-0.15601599,0.12248783,0.07625578,0.0049272124,0.020072043,-0.036278013,-0.025382366,0.16497137,-0.059850115,0.30033764,0.108744845,0.16158572,0.10707023,0.23600377,0.15199034,-0.0013845713,-0.18604286,-0.1231737,-0.28742638,-0.10834926,0.22421817,0.115882,-0.17309001,-0.10712433,-0.036002588,0.1834276,-0.08547458,-7.100976E-5,0.14858952,-0.048768383,0.015654324,0.025140744,0.30619135,-0.006113085,-0.18912779,0.18371387,0.17669205,0.09597521,0.11033332,-0.046511833,0.065983705,-0.037350617,-0.092689976,0.0746365,0.24076729,0.015781641,0.015993765,-0.028377183,0.011215272,-0.058379326,-0.072534844,0.012834512,0.12019306,-0.0077778045,0.0688936,-0.030171786,0.13107473,0.34759408,-0.082476735,-0.0042267954,0.030770311,-0.23434938,0.09787433,-0.1327581,0.11426538,-0.14334817,0.18944313,0.03796904,-0.09049631,-0.010226188,-0.015432777,0.056115955,-0.0056022727,0.02898831,0.10577666,0.053964924,0.118452445,0.09920494,-0.29149926,0.20753822,-0.20113216,-0.10274336,0.16636752,-0.013208323,0.057304498,0.13399687,0.00827343,-0.16051099,0.10457615,-0.04464963,-0.22913139,0.22018372,-0.24236861,0.11439399,0.12824471,-0.22974856,-0.2244212,-0.091879465,0.2947867,-0.08425949,0.041340567,0.08417427,0.1861699,-0.050356425,-0.03825051,-0.22297063,-0.09550281,-0.26243773,0.100472696,-0.25455374,-0.16298988,0.13065293,0.05363514,0.12255118,-0.24989909,0.044717114,-0.11041304,-0.065543294,-0.17514113,0.04033165,0.28814778,0.11582089,0.29352942,0.2927993,-0.24385399,0.0691575,0.18660006,0.009937818,0.023317326,-0.13631032,0.2224041,-0.10177885,0.30520353,-0.085835874,-0.20556965,-0.26058245,0.14152822,0.08046567,0.14939196,-0.13438582,-0.034787424,0.123328924,0.1133804,0.19139332,0.11775046,-0.11391446,-0.17355129,-0.046595845,-0.16460115,0.48538116,0.2752197,-0.20669818,0.23436035,-0.04727719,-0.2388649,0.05559022,0.15800847,-0.1158279,-0.08829389,-0.018068604,0.00987719,0.16743745,-0.16868713,-0.0021602514,0.026906272,0.017740319,0.081256114,0.074675135,0.16008522,0.14079432,-0.06618653,0.07899001,-0.28995067,0.24438126,0.002151292,-0.1404046,-0.119611606,0.031165104,0.06313006,0.07659373,-0.07325578,0.05269723,0.018762965,0.038314372,-0.22998282,0.13500203,-0.084809676,-0.1555211,0.025819585,0.034504175,-0.031047394,-0.283559,-0.09854264,0.055388067,0.13124426,0.049442153,-0.19947872,-0.14787248,0.18954618,-0.032981668,0.09378738,0.18891406,0.37899798,0.23647092,-0.19267881,0.099491484,-0.40913093,0.18815087,-0.070067056,0.051105402,-0.022313125,-0.016942836,0.041736633,0.26071966,0.16392794,0.4836844,-0.006867502,-0.07531909,-0.16674256,-0.037943244,0.2900833,-0.026775647,0.0023379019,0.1150426,0.052529227,0.07110985,-0.21970925,-0.005246154,-0.035975136
白瞎,0.21722287,0.24433398,0.05211174,-0.2180381,0.12850767,0.07873886,-0.15906407,-0.070565835,0.08638805,-0.15808587,-0.1422036,0.11035535,-0.07196727,0.022417627,-0.01329227,0.08536462,0.05419342,-0.15651079,0.02549711,0.0033544486,0.16515888,-0.107405104,-0.073446855,0.12052559,0.28195852,-0.009289065,-0.04906309,-0.07599025,0.09750666,-0.19109394,-0.18180147,-0.0154796755,-0.22061923,-0.011701033,-0.021340476,-0.22601941,-0.0029595448,-0.31288177,0.2683448,-0.08838411,0.04690701,0.0038335202,-0.04983726,0.029973818,-0.14188303,-0.15638588,-0.019322509,-0.10995917,-0.19259523,-0.11844663,0.14306708,-0.21159957,-0.0042135958,0.07813619,0.006868692,0.23242031,0.14136232,0.32491964,0.09285651,-0.05626028,-0.2043323,-0.090072155,0.21379834,-0.118584014,-0.109362885,-0.01041206,-0.15735708,-0.12780613,0.021815037,0.0309497,-0.21742907,0.02263946,-0.11360079,-0.052708503,-0.10546472,-0.3994169,0.14840487,0.3578553,0.18244483,-0.23516175,0.13531153,-0.30846256,0.09988,-0.20259024,0.13712324,-0.02384115,-0.2590315,-0.01963747,0.11023438,0.23568834,0.13276938,-0.090579316,0.002565703,-0.0117856385,-0.0077442713,-0.17202155,0.036017403,-0.09005077,-0.07933802,-0.12430719,-0.14475863,-0.13192396,0.0611386,0.06592902,0.080725886,0.20591146,-0.1757351,-0.05458603,-0.020658785,0.19640997,0.021704532,0.047997244,0.23031013,0.04325264,-0.03772534,-0.23404682,-0.027498398,-0.24507597,-0.045646854,-0.06906138,-0.147141,0.031019606,-0.11280725,0.116683625,-0.28326777,-0.101443425,0.07701305,0.24719058,-0.2035972,0.02357926,-0.053743687,0.13596901,-0.3492672,0.13855463,-0.31405538,-0.07252876,-0.15264684,-0.1002387,0.0062403292,-0.15803051,0.24396476,0.0079962555,0.07467516,-0.050247066,0.29450777,-0.07173466,0.0448727,-0.07679745,0.07158936,0.09431315,-0.06938453,0.2032293,-0.17794497,0.14434084,-0.02998061,0.09490783,-0.24453837,0.14238155,0.04961584,0.02828279,0.34232178,-0.0110760685,0.043836094,0.18494354,0.1985486,-0.019384487,-0.048836995,0.050651852,-0.16777734,0.1379221,0.24683218,0.076131225,-0.080481894,-0.14703721,-0.06815216,0.33189777,0.10627253,-0.047522765,0.19270922,-0.11192663,-0.113045946,0.18704481,-0.10056223,-0.055594526,-0.14962494,0.14014737,0.14427282,0.104472205,-0.2532493,-0.1289122,-0.06457168,0.1614321,-0.053617515,0.0064165047,-0.09644492,-0.06686734,-0.03292128,0.029289505,0.014809499,0.016184969,0.22720395,-0.029094001,-0.04328073,-0.12742564,0.06786014,0.17171504,-0.03410464,0.060782194,-0.3844272,-0.123422645,0.2132231,-0.04298326,-0.11869253,-0.11194646,0.17710914,0.08241579,0.24305046,-0.057181463,-0.026772548,-0.10418403,-0.07079891,0.42275938,0.12296172,0.12648115,0.050383914,0.09090963,-0.006170166,-0.035912227,0.08321753,0.022102885,-0.23087294,0.13227564,0.13106233,-0.05887523,-0.056108713,0.28071606,-0.08929201,0.08500372,-4.0903155E-4,-0.034329236,-0.22176667,0.132918,-0.041717727,0.010983214,-0.3439085,-0.29203984,-0.03143207,-0.041862145,0.11693603,-0.1456922,0.24124554,0.014710465,0.12723872,0.26655915,0.24066558,0.022587027,0.01433197,0.07181396,0.08316541,0.1497163,-0.032851532,-0.088811785,-0.11760508,-0.060401365,0.067657165,-0.18341997,-0.18088797,-0.065939546,-0.1392332,0.155425,0.13041084,-0.038323257,0.16695467,-0.15508322,-0.107582055,-0.13078508,0.048432846,0.20889018,0.08384438,-0.2841702,-0.01989348,0.033769518,-0.120251805,-0.19429569,-0.13178921,0.060199127,-0.05478895,0.27753884,-0.22610486,-0.2118196,-0.2730189,-0.20550068,0.082181886,-0.08930984,0.15274136,-0.09785715,0.16818872,-0.4195826,0.017238935,-0.13991693
甩手,0.06785671,0.18870625,-0.16024606,0.1261308,0.13861063,0.002867191,-0.15910622,0.05250317,0.20750244,-0.05931943,0.18843256,-0.12710519,-0.031334646,-0.03959453,-0.13718796,0.35748312,-0.041200984,-0.19069737,-0.16400772,-0.09152349,0.07943597,-0.178898,-0.06939579,-0.12565604,0.13586165,0.3064156,-0.017162655,0.24798758,-0.35052246,-0.365624,0.0435527,-0.12220221,-0.06452363,-0.15439732,-0.050761186,-2.0617059E-4,-0.23812681,-0.5200873,0.108999096,-0.0588583,0.02305747,-0.025581751,-0.032677714,0.21180749,-0.03365093,0.0054449085,0.14056656,0.14777869,-0.11349758,0.16352679,0.34524918,0.025060963,0.2355756,-0.04258197,-0.080074534,-0.39676112,-0.06525686,0.13771883,0.1997025,0.051226396,-0.022960428,-0.09759939,-0.026611475,0.14439963,-0.314992,0.104268886,0.20332594,0.035075787,-0.0046480377,0.3061035,-0.22198811,0.09373779,-0.14037777,-0.07368995,-0.014754677,-0.06187302,-0.09061989,0.39240232,0.029497484,-0.14838679,4.204824E-5,-0.15630497,-0.5153043,-0.06806102,0.1571495,-0.11049079,0.03348606,-0.030551622,0.0030969626,0.13443384,0.08012446,-0.20468181,0.011582153,0.17346549,0.06940461,0.20346023,0.4115765,-0.015273218,-0.0027789597,-0.064957604,-0.16058387,0.45480108,0.17088419,-0.17346226,0.08464946,-0.17680876,-0.004983571,0.012246022,-0.13033956,0.022559056,0.12642695,0.105253935,0.04991796,0.17362364,-0.09219308,0.017710788,-0.054273147,0.115722165,0.16619195,0.033354234,-0.26608065,0.0020458868,-0.13737626,0.23427597,-0.20028174,0.009599688,0.14985143,-0.03979547,0.24940297,0.3088963,0.093693055,-0.03784315,-0.09911188,0.25223437,-0.009136824,0.2458038,0.011585086,0.005610461,0.06371298,0.15686285,0.27019948,0.055067707,0.117078125,-0.23016517,-0.23941575,-0.08592346,-0.10846118,-0.14236397,0.06499519,0.18516105,-0.2605735,0.27506316,0.18212849,0.01708173,-0.04052911,0.016382813,0.048897006,0.2628703,0.10002906,-0.0427813,0.027716707,-0.1880751,-0.37826273,0.04541976,-0.041746333,-0.15696856,-0.19409041,0.014623927,-0.43780857,-0.024074072,0.3708948,-0.17217128,-0.09161577,-0.0321039,0.21274075,0.17150189,-0.29976714,0.14050838,0.07962039,-0.23294337,-0.09621911,0.5414134,0.21740533,0.18978363,-0.1108337,0.31482312,0.26523995,0.10031912,-0.15389773,-0.02104341,-0.11225283,0.0952841,-0.04114657,0.16191523,0.026393285,-0.020029664,-0.30986238,0.1752155,-0.023160556,-0.051205378,-0.0619598,-0.18682992,0.11265654,-0.062032215,0.019862134,-0.09261272,0.028989568,0.14563902,-0.080396466,0.008996051,0.020494953,-0.3026318,-0.109389864,-0.15387163,0.19448316,0.07200672,0.2802574,0.199352,-0.10688138,-0.17027356,0.02607774,-0.10982134,-0.24750157,0.05489663,-0.0366413,0.032362547,0.14896289,0.29736242,-0.13937221,-0.24105306,0.0107690105,-0.024105368,0.071886726,-0.27854457,-0.197696,-0.02860578,-0.041899037,0.07967034,0.21497191,0.16430363,0.09017331,-0.13123372,-0.12950146,-0.056122717,0.027907105,0.1303837,-0.39284664,-0.13484113,-0.02768194,0.20270497,0.3523672,-0.09911845,0.10536398,0.021630835,-0.011354181,0.01009511,0.13925773,-0.2659365,-0.27644724,0.2823881,-0.08586599,0.21219471,-0.18251441,-0.16356863,-0.018329479,-0.35612327,-0.11024745,-0.35041544,0.14773455,0.14818731,0.086065196,-0.15428038,0.16087252,-0.050414134,0.29040906,0.10326388,-0.04179966,0.29387277,-0.09995091,-0.08259694,-0.056878168,0.10402675,0.07252865,0.23539636,0.026036711,-0.23767905,0.03818144,0.045488864,0.040075816,0.097680695,0.22275177,0.07621528,0.19394611,0.07859657,0.30984885,0.10715891,0.0066130497,-0.16537277,0.04877923,-0.063263796
个我,0.123553686,-0.2675111,-0.10577464,0.46708933,0.010176357,0.07556905,-0.26440677,0.08290233,0.06146112,-0.0051400713,0.07615504,-0.0025064505,-0.09337471,0.07550981,-0.13859884,-0.099675685,0.14197826,0.0049550952,-0.26418057,-0.05541334,-0.023078911,-0.012316836,0.12880148,-0.12377966,0.010912253,0.021626258,-0.10399682,0.14241979,0.08190308,-0.23879692,-0.14215243,-0.16636817,0.2593256,0.16456537,-0.06448237,-0.1019045,-0.011430211,-0.13513361,-0.0441637,0.18107064,-0.038920004,-0.060758196,-0.28760934,0.31272563,-0.17670222,-0.0911652,-0.11309503,0.02094312,-0.021496292,-0.16208065,0.202141,0.019732438,-0.26330453,-0.28292346,-0.15334032,-0.040939327,0.13739815,0.05924209,-0.04960426,0.09157528,0.14757353,0.013416744,0.07177745,-0.11254426,-0.19087976,0.12937875,0.0026376573,-0.13230684,0.083919145,-0.042591993,0.008993045,-0.014126878,0.27962264,-0.1049663,-0.03854809,-0.3114441,-0.058874544,0.010411301,0.035480477,-0.062799945,-0.01152816,-0.0033374834,0.2436626,0.17889005,0.11583548,0.071593285,-0.3207418,0.03892958,0.21391462,-0.14281788,0.11831512,0.008493785,-0.15946488,-0.20330778,0.081029035,0.16044533,-0.09710917,-0.12709966,0.12300411,0.113141306,-0.52151704,-0.1979942,0.14543448,-0.059866015,0.113413185,0.18485777,-0.04415785,0.13511507,-0.102874294,0.02421381,0.04424051,-0.091756046,0.0942941,-0.018210568,-0.29298332,0.27234536,0.09273248,-0.18718089,0.045229074,0.2605415,-0.029321503,-0.060721282,-0.062270686,0.0119420355,-0.033112228,0.17718925,-0.200022,0.26519305,-0.103733,0.054538,-0.17246106,0.14068896,0.21499416,-0.1093743,-0.154914,-0.11678011,-0.37775627,-0.022830695,-0.09247454,-0.07388202,0.016916214,0.22443706,0.22567318,0.013667011,0.028001174,0.13756382,0.16024223,-0.30176884,0.12327716,-0.22661334,-0.0052842526,-0.2854257,-0.088498406,0.004143032,-0.2774221,0.21219616,-0.0043794257,0.08033875,0.1175177,-0.15048203,-0.058494873,-0.17038333,0.16314346,-0.086507216,0.083455,0.110213034,-0.38828778,0.08416653,-0.08943731,-0.13364294,-0.11779371,-0.031219175,0.035226665,0.337737,0.07392203,-0.0391567,0.39065439,-0.11273449,0.09844256,0.14934394,-0.13538256,0.20091945,0.026870543,-0.074503735,0.08603497,0.13384117,0.37039998,0.12720521,0.004283676,-0.06437925,0.15002277,0.23377067,-0.21100906,0.18701446,0.17729782,0.22448492,0.034066208,0.020550916,0.22063895,-0.32778302,-0.012460654,-0.0063411016,0.10665441,0.026242193,0.1259728,-0.11050384,-0.074977376,-0.057306554,0.13299713,-0.01779221,0.08513763,-0.027772788,0.07102707,0.37262422,-0.12987846,0.08803163,-0.0716608,-0.08311647,0.16381782,0.19742943,0.036050845,0.18486811,0.084878534,0.3268013,-0.026389662,-0.0059713777,-0.08796018,-0.0019084244,0.006919069,-0.25885135,0.20703134,-0.33253086,0.006507253,-0.15422331,0.11836717,0.08814059,0.040493585,-0.022277342,-0.030356694,-0.12490685,-0.028610379,0.07348467,-0.0352798,-0.039945092,-0.19531268,0.15470253,0.18321413,0.020685246,-0.006930802,-0.045162182,-0.008340072,0.1935376,0.2376368,-0.25101155,0.03203895,-0.024940705,0.043493517,-0.16835833,0.2631903,0.045043245,-0.13710472,0.13507785,-0.11713165,-0.031871263,-0.14355981,0.11859734,-0.0033574337,0.049070872,0.05886873,0.058176555,0.17118254,0.25315028,-0.06693661,-0.15882659,0.12907259,0.16128755,-0.0914546,-0.21787813,0.04185095,-0.07831095,-0.45808077,0.25281554,0.10436928,0.09872983,0.06998169,0.21603112,-0.05782301,0.14747703,-0.071689785,0.20485738,0.45977905,0.19768117,0.16524164,0.21900658,-0.008640011,-0.019427035,-0.11081824,0.04348408,-0.0474124,-0.06878271
多尺寸,-0.08596922,-0.0788475,-0.15011531,0.10139937,0.23648584,-0.12865333,0.05743539,-0.14650136,-0.063123256,0.0604091,-0.1799448,-0.090150036,0.026333008,-0.07966653,-0.03397944,0.038031366,0.086126424,0.10897935,0.111827694,-0.13877928,0.123608425,0.08632,0.040854454,-0.07259869,0.11328647,0.18253116,-0.09042777,-0.09233984,-0.07664905,0.119080275,0.23664156,0.005919795,-0.044233706,-0.094488576,-0.11658998,-0.032607272,0.014022451,-0.18797903,0.14235169,-0.1325562,0.24723086,-0.13604173,-0.054636583,0.087115616,-0.12408924,-0.08683998,-0.08742659,0.009324419,-0.018474733,0.21594818,-0.10356223,0.13246913,0.07254058,-0.024686052,0.09144114,-0.0347848,-0.27964413,-0.020489942,0.17139117,0.11538816,-0.17388712,-0.15411547,-0.054904558,0.048959594,-0.12611586,-0.05471483,-0.16414839,-0.08290651,0.097543105,0.1314058,0.047055885,0.16425054,0.07848121,0.0013456981,-0.12786865,-0.14832321,0.061208185,0.052824695,0.17896788,0.050803006,-0.024919486,0.043844394,0.02334133,-0.018912874,-0.026844785,-0.063373946,0.12734592,0.11233155,0.14724584,0.12695834,-0.11243982,-0.12680125,-0.041901693,0.23724034,0.05520904,0.046395876,0.13512261,-0.092844084,0.042117268,-0.10264889,0.03369134,-0.114685334,0.12999444,0.10137821,-0.13575812,-0.07821308,-0.09447758,0.01651391,0.019628562,0.1809663,-0.07197856,0.14465716,0.13441855,-0.12767659,0.06383974,0.0051381597,0.22909482,-0.10707506,-0.07667037,-0.016591456,-0.07514816,-0.08795471,0.07990827,0.18087743,-0.06113961,-0.100953124,-0.041222934,-0.111513756,-0.064069636,-0.07517272,-0.029407393,0.13613518,-0.027704278,0.2519329,-0.06741169,-0.10818576,-0.18270198,0.12867592,0.0014044875,0.103048414,-0.07308887,-0.10913298,0.12240131,0.19167666,0.22425546,-0.088273846,-0.0751498,-0.018254934,0.119105734,-0.021676585,-0.07265547,0.02376264,0.043676704,-0.07682854,0.13650231,-0.03044592,0.06769891,0.15159184,-0.07553877,-0.1657151,-0.115125746,-0.029122623,-0.07693271,0.21771497,0.13085599,-0.0014985816,0.030832553,-0.010045407,0.015575775,0.024007099,0.090516604,-0.104478255,-0.10690692,-0.060757034,0.027123054,-0.06954206,0.009504296,-0.09742107,-0.1540182,-0.01163619,0.053045485,0.1240607,0.062833026,0.06971538,-0.048312243,0.19934249,-0.021277867,-0.08385256,-0.0752912,0.124517515,-0.090725295,-0.035917453,0.06316119,0.18480022,0.12659419,0.0724482,-0.062245976,-0.09046656,0.068341255,0.018982748,-0.0038959372,-0.017614022,0.020527339,-0.064560995,-0.121898875,-0.13942197,0.1268992,-0.14023116,-0.025250938,-0.04342922,0.16588834,0.01302858,-0.067254335,0.12567885,0.1696772,-0.008414484,0.11245617,-0.08176099,0.3691646,-0.04127252,0.013825008,-0.12577681,0.030111426,0.06665759,0.10027636,-0.024071883,0.09177218,0.09759195,-0.111993246,-0.025645452,-0.13401566,0.2672772,0.081313275,0.09071973,0.034984756,0.056876868,0.14728355,0.12807745,0.21952912,-0.12590374,0.059103698,-0.04499724,-0.12621775,-0.084502846,0.019945584,-0.05949779,0.004717456,-0.1117038,0.027360216,-0.008746901,0.19056031,0.0028278315,0.18413715,0.059041683,-0.054076545,0.106517956,-0.020256178,-0.2048447,0.026841532,0.05306806,0.12081148,0.043377675,-0.20935968,0.0017337238,-0.017626155,0.20844714,-0.06429429,-0.059538353,-0.032951217,0.16554499,0.16851145,-0.06691758,-0.098618954,-0.11341401,0.02874602,-0.04714129,-0.050993666,-0.08646824,0.023620138,0.14484309,-0.13905591,0.005191884,0.14050816,0.056355212,0.23628408,-0.00429517,-0.015857434,-0.0045804684,-0.060583144,0.013136551,0.0021564458,0.03629972,0.10797684,0.30130893,-0.06475855,-0.063185185,-0.050404467,-0.11227935,0.22644378,-0.005757016
的车,0.33572453,-0.07465997,-0.21497424,0.2081163,-0.033025827,-0.11428316,0.081538625,-0.117923096,0.5962714,-0.08270924,-0.394177,0.21793157,-0.15546125,0.033866905,0.31083688,-0.0010564352,-0.034437794,-0.030548858,0.1566205,0.0900992,0.12577178,-0.10177232,0.053136744,-0.051164642,0.21958217,0.604131,-0.0010749084,-0.0546224,-0.21686982,-0.32376346,-0.14306541,-0.004088053,0.20990735,-0.011546184,-0.1639144,0.045266382,0.14611244,-0.3525854,-0.46277216,0.12700063,0.19246857,0.048003234,-0.025551945,0.12191117,0.13278696,-0.30675843,0.25923005,0.19273894,0.09530847,0.20943606,0.17399976,-0.25564188,0.07340807,0.034735046,-0.49117377,0.0012353278,-0.29286522,-0.09426471,-0.088678956,-0.13386573,-0.058158107,0.1112216,-0.08117587,0.1833137,-0.20251681,0.2127706,0.2955442,0.30080947,-0.04928763,0.024004523,0.038022112,-0.23684968,0.029866513,-0.037836235,0.038259536,0.033557925,-0.38728896,0.18914,-0.124238625,-0.1758044,0.05039695,-0.1709526,-0.10761053,0.19252205,0.091400556,-0.10965594,0.07090647,-0.0370975,-0.13238816,-9.470039E-4,-0.10704313,-0.2424919,0.11661772,0.21759926,-0.044978555,-0.086568765,0.34483737,0.052357126,-0.043951824,0.2422621,0.0038006858,-0.29044506,0.01799573,0.045083787,0.22768955,0.12004504,-0.09736488,0.22381063,0.12619267,-0.014246494,0.32571122,-0.099157386,0.34553728,0.01804247,-0.039178554,0.22921595,-0.38929635,-0.14770615,-0.018742207,0.10704093,-0.19951665,-0.22339265,-0.12807453,0.17776887,-0.10426353,-0.026772136,-0.09674024,-0.04569228,0.1404733,0.08028541,0.24055953,-0.14997372,0.26125082,0.23091392,-0.32286134,-0.50669074,-0.14557076,-0.053415667,-0.107501045,0.32229522,0.10676006,0.099333026,0.18736969,0.17937082,-0.015768686,-0.02530389,-0.012839211,-0.21397464,0.010779882,0.15470955,0.07134977,-0.13535127,0.03586301,0.031025521,-0.042704564,-0.17320375,-0.16177915,0.3228058,-0.1826307,-0.17313008,-0.00337258,-0.69715756,-0.35705128,-0.14900267,0.3174395,0.5047036,-0.27668068,0.05992436,0.061357874,-0.3428828,0.23904917,-0.11547428,-0.29023275,0.23614132,0.53416455,-0.007935826,0.20506889,-0.38766643,-0.07239576,-0.16689894,-0.18729587,-0.19745111,-0.6430918,-0.08133561,0.3085798,0.35248813,-0.09300144,-0.22864461,-0.0063718306,-0.009568209,0.005202895,-0.047803503,-0.12932058,0.122231685,0.07573935,0.15982038,-0.48959288,-0.09359419,-0.064554594,-0.19670093,-0.22355545,0.087551095,0.16721292,-0.29614696,-0.1832707,0.13086689,0.16072449,-0.08339378,0.3212054,0.09724776,0.16504855,-0.19001856,0.09692392,0.439489,0.10225647,0.048221886,-0.08979331,-0.06918123,-0.16774134,-0.37348223,0.112201415,0.3278945,-0.08437199,-0.041192066,-0.064898506,0.31094187,-0.12754515,-0.1648952,0.07115036,0.09385977,-0.00433675,0.08239223,0.16449523,0.14478137,-0.17989436,0.010446377,0.0011785818,0.17338565,-0.006552044,0.3332349,0.28538215,-0.2224503,0.10685775,-0.07928453,-0.07164387,0.3009067,0.063656464,0.07598641,0.039333917,-0.054365553,0.07867413,0.32040924,0.008335715,0.120645516,0.16894357,-0.0016502732,-0.003050688,0.17284444,-0.051456958,0.20018354,-0.095440954,-0.07298315,-0.16870694,-0.011837923,0.17078492,-0.18413769,0.155335,-0.017959727,-0.05535092,0.097867064,-0.15764669,-0.13985667,0.17013033,-0.20632708,-0.0011472455,-0.052130446,-0.22445197,0.119286716,0.18119319,-0.03589339,0.105029844,0.2813863,0.20303972,0.1519829,-0.05366502,-0.053868752,-0.15699151,-0.13393916,-0.11349189,0.16690162,-0.2271047,0.3306803,0.2775498,0.22476088,0.19489442,0.2861414,0.2628292,-0.07352918,-0.081900656,0.32603794
伙伴,-0.06858183,0.16253443,-0.044208284,0.23230244,-0.08561106,-0.09219449,-0.13184737,-0.13581666,-0.03823704,0.13969073,-0.11441242,-0.07215635,-0.09266725,-0.16075431,-0.27775246,0.13312793,0.13236673,-0.038737487,0.26000088,-0.041473337,-0.21608989,-0.042600572,-0.1073929,0.0034177685,0.06844918,0.19993299,0.084965035,0.18384907,-0.21497238,0.13246514,-0.22682665,-0.0025596719,-0.09871073,-0.06420886,0.29294166,0.11141297,0.04717274,-0.21937637,-0.004468856,-0.14078116,0.054295577,-0.16778097,-0.3365398,-0.06783896,0.16423772,-0.1446142,-0.2598255,-0.10035642,0.14503132,-0.02443858,-0.09960234,-0.2350442,-0.040654004,0.20105942,-0.030246012,-0.15144731,-0.37443992,-0.36325228,0.018302986,-0.28353876,0.30463448,0.05476475,-0.20341207,0.12853478,0.20316985,-0.13686569,-0.06730908,0.25700688,-0.035337582,0.5173251,-0.008248698,-0.06497129,-0.020573786,-0.26532948,0.075093485,-0.15048087,-0.2912197,-0.19367087,0.17042343,-0.03116218,0.18712658,-0.029051788,-0.1828705,0.23043679,0.21328242,0.15028174,-0.25650257,0.07204015,0.05242197,0.025338385,-0.34792975,0.30989987,0.063945636,-0.19246462,-0.29006922,0.23447672,0.1467626,-0.039078046,-0.23206407,0.20140441,-0.13399044,-0.3659468,-0.020264054,-0.22520313,0.012127938,0.23647448,0.08525919,0.24544302,0.1751414,-0.19373152,0.12410231,-0.115849055,0.074106,-0.33630568,-0.13761343,0.19677275,0.047166627,-0.25625157,0.2128295,0.19168746,-0.12709197,-0.19838877,0.08056592,0.36100996,-0.14624546,0.17342994,0.21071315,-0.19010532,0.0268218,-0.31730628,-0.00812516,0.17211957,0.008334338,0.06320523,-0.28266186,0.14966704,0.099351816,0.006309514,-0.24431622,0.016171712,0.026630152,0.3636868,-0.3132198,-0.12430606,-0.23174064,-0.0087638525,0.029969081,-0.41604498,-0.108639635,-0.32852727,-0.14386648,0.13069104,0.12301724,0.17860523,-0.019802568,0.03317176,-0.08482274,0.28855386,-0.19290034,0.12994929,-0.095151566,-0.23165612,-0.048967462,-0.058596678,0.063335225,-0.11026457,0.12429132,-0.10870005,-0.25887108,0.21767694,-0.0272968,-0.043267246,0.040448904,0.04216523,0.059771832,0.08092456,0.3768852,0.06319855,0.0022803382,-0.007560942,0.11207142,0.1320328,0.040525503,-0.4038462,0.13628228,0.29364222,0.05699048,0.2872419,-0.052372716,0.17405789,0.21497807,-0.1690302,-0.2748421,-0.047580983,0.26428053,-0.15856779,0.11627512,0.038950212,0.061316345,0.037604824,0.43727863,-0.25428346,-0.24789523,-0.21741384,0.03780137,0.33356005,-0.07882442,-0.0152643,0.08801812,-0.026250068,0.12941451,-0.06193993,-0.40813178,-0.2521392,0.32305688,0.16204081,-0.16663116,0.06722651,0.2259597,4.606489E-4,0.16285735,-0.33119798,-0.13932835,-0.09418374,0.19885217,0.12111845,-0.10048647,-0.04872541,0.06574898,-0.17936286,0.11420025,0.03163812,-0.015289325,-0.029695554,0.04518669,-0.2003172,-0.19423257,0.09516524,-0.023094952,0.01083748,0.16991706,0.089505754,0.38451555,0.10265825,-0.035502978,-0.18513972,0.08699925,-0.25522518,0.2721077,-0.081890866,-0.13900559,-0.10169482,-0.035185933,0.06481165,0.08889254,-0.16668542,0.046942472,0.030782472,0.016534844,0.18732214,-0.15161058,-0.09320458,-0.1253691,0.027504511,-0.03526996,-0.03392712,-0.02655818,0.28355253,0.05053383,-0.18254273,0.15135635,0.053451914,0.1325483,-0.10756249,0.12935068,0.0049861004,0.29590556,-0.24734378,0.26262718,-0.037902426,0.16873918,-0.023433352,-0.07780585,-0.2332199,-0.16199382,-0.009107651,-0.22339743,0.1380509,-0.14281239,-0.48562962,0.100509316,0.29519823,0.39056823,0.05370005,-0.23441176,-0.013668919,0.17456822,-0.027879247,0.07771531,0.1718915
这个天气,0.36948344,0.2742657,0.13000356,0.29386994,0.14957929,0.047410652,-0.055063006,-0.20282371,0.019457439,-0.09956628,-0.031161629,0.064167224,0.23050088,-0.3184608,0.20387784,0.25083795,0.078960374,-0.36544305,0.247198,0.2817277,0.122639164,0.049693953,0.09907108,-0.052191176,0.014261004,0.04398389,0.01222079,0.12078494,-0.008892428,0.052403495,0.23661523,0.05571433,0.16077422,0.40744403,-0.054010797,-0.20631303,-0.07213478,-0.0056040874,-0.27766913,-0.41959918,0.13645905,-0.07696299,0.19938156,0.062237013,0.113873154,0.09828004,0.057401456,0.16788392,-0.17324632,0.29917553,0.124844566,-0.01899863,-0.11316878,-0.12424384,-0.06935588,-0.04921635,0.010302535,0.053689647,-0.18795605,0.007373459,0.023278669,-0.18551545,0.08785874,0.26220083,0.14682235,0.24695654,-0.1749646,-0.41953412,-0.33259442,0.48965204,-0.21825123,-0.2679461,0.29057828,-0.47250918,0.04043405,-0.039973658,0.38120446,0.12152043,0.46657014,0.20303482,-0.37613878,0.121272594,0.030152956,-0.08846812,0.09478014,0.30707815,-0.049336188,-0.3634084,0.29860285,0.01279758,0.27277547,-0.12844098,0.0131095005,0.32126385,0.15147732,-0.054180212,0.1623707,0.23280227,0.35296273,0.37037846,-0.06431686,-0.062673874,-0.3770893,-0.34001026,-0.121697925,-1.688419E-4,0.15091491,0.28065917,0.08860385,-0.026272079,-0.24144506,-0.21735063,-0.17322147,0.13879539,-0.23625359,-0.16047354,-0.079008505,-0.25231323,-0.032225356,-0.11537742,0.17570023,0.023123622,-0.044142224,0.029831773,-0.2320437,-0.25949004,0.11075758,0.30503872,-0.33006886,-0.060559556,0.5452018,-0.14723304,0.07645459,0.51068616,-0.24602652,0.34483072,0.25077894,-0.10002857,0.18093158,0.041032918,0.10507917,0.4078978,0.16599654,0.111907065,-0.10115005,0.23123291,-0.10896666,-0.12724614,-0.31935322,0.27631775,-0.033200324,0.42186263,0.24702437,0.018352563,-0.19200686,-0.6072654,-0.021690983,0.14173882,0.067475505,-0.011397956,-0.19974078,-0.083252706,0.07014115,-0.27616006,0.082376316,-0.3434773,0.21743394,0.2706937,0.2760428,0.062233385,0.21610112,-0.108453095,-0.12417595,-0.031757552,0.058349922,-0.09462443,-0.17744789,-0.04112468,0.053399317,0.0964705,-0.17407541,-0.3928122,-0.48823503,-0.16455096,-0.24434793,-0.12776028,0.107454255,0.24096671,-0.14644928,0.18021174,0.19841713,-0.097581975,-0.13199656,0.15164416,0.18853177,-0.13118164,-0.45348248,-0.23388156,-0.32090616,0.07790084,-0.31659827,0.22241919,-0.036467675,-0.044683717,7.259372E-4,0.38408965,0.047405437,0.101881795,-0.17567597,0.14846651,-0.011715061,-0.034893222,0.15814735,0.090177454,-0.07296202,-0.18380265,-0.23436975,-0.21312018,0.028209394,-0.015558188,0.09326526,-0.16431023,0.0213751,0.15646932,-0.52992994,0.14955156,-0.42553475,0.03510552,-0.0057510906,0.24217449,-0.340263,0.2611694,-0.18803541,0.21842808,0.1919522,-0.05324829,0.24469684,0.30579683,-0.0947986,-0.07747499,-0.040876072,-0.103441715,0.26494658,-0.11293968,0.22795914,0.19164555,0.15043049,0.056565564,0.030767633,0.08000977,0.03246073,-0.077094324,-0.11366763,0.15820818,-0.040585145,-0.043703694,0.18336348,-0.27304778,-0.0871904,0.12407598,-0.52438575,0.4205094,0.3353627,-0.056082577,-0.12602897,0.07882267,-0.32304364,-0.101246424,-0.24467565,-0.18188481,0.09931455,-0.001536604,0.049508218,-0.50140256,0.05671335,0.20265462,-0.14971583,0.13761325,0.15007459,0.0012456999,-0.107746355,-0.087989554,0.14255232,-0.004373442,-0.2548002,-0.16973637,-0.041641116,-0.1319916,-0.11679594,-0.0134248575,-0.14444819,-0.007846074,0.2514716,0.1542516,0.13129866,0.18893601,0.09326674,-0.2267737,0.1364675,-0.12848501
真了,0.030576428,-0.044724904,0.03354158,0.008147418,-0.1576195,0.040345535,0.3903262,-0.007529694,0.040354993,-0.18204683,-0.059371646,-0.29531133,-0.09666345,-0.33217275,-0.11916347,0.4054812,0.24303521,-0.3878373,-0.041472264,-0.09548319,0.016417162,-0.05718581,-0.09412821,0.027543105,0.1737631,-0.017458996,0.16443197,0.025745438,0.11491154,-0.058701355,-0.43444243,0.25940207,0.41383544,-0.14714684,0.27961215,-0.39324287,-0.2725811,0.3151166,0.015556048,0.28420147,0.027373247,-0.13298418,-0.06988326,-0.26813996,-0.08424158,-0.10903346,0.0894406,-0.19153841,-0.052813597,0.14724107,0.046360053,0.3808449,0.29553822,-0.15352094,-0.04323225,0.12216836,0.14527096,-0.18873386,0.046541885,-0.092398964,-0.19252191,0.1226313,-0.13960637,-0.19625628,-0.06303417,-0.09626701,-1.8118882E-4,-0.069206595,-0.36874628,0.0037227373,-0.30169347,-0.061571542,0.017043348,-0.03035212,-0.06318982,-0.03172473,-0.14927724,-0.07779678,0.0045269616,-0.06740492,-0.061781123,0.0031170903,-0.056658976,0.088999666,0.4055992,-0.06592811,-0.11874223,0.1854756,0.036058895,-0.2358221,-0.093965866,-0.21825562,0.124637984,0.18489349,0.3329881,0.27260813,0.18066269,-0.11416191,0.07887708,0.13116762,0.07067966,-0.06308432,-0.065201364,0.072739586,0.049424462,-0.06358004,0.098850295,-0.18206726,0.011811039,0.30427265,-0.0658054,0.00166785,-0.032698773,-0.13238226,0.009584351,-0.13384897,0.012851836,0.03991558,-0.1262933,0.21467194,0.11149069,0.034367617,-0.2583628,0.06502176,-0.07608844,0.23185076,0.10848839,-0.262735,-0.03440836,0.04691136,-0.038701452,0.0070897886,0.012998397,0.1889741,-0.005335154,0.35594568,-0.0051734108,0.0668535,0.37908983,-0.1638352,0.11509451,0.15455914,0.08979874,0.10971102,-0.04978373,-0.17391804,-0.101577,0.035056137,-0.2054285,0.22816968,0.039469115,-0.03795924,0.2024064,-0.076007046,-0.111472055,-0.0010361626,0.017608725,0.21550852,-0.37490794,0.013505903,-0.10138035,0.06660942,-0.18143366,0.023692856,0.18898551,-0.023540974,-0.02075572,-0.09202003,0.031973,0.08702469,0.09763814,0.010439357,0.16148151,0.06911452,-0.25260842,0.37377796,0.4275392,0.073985964,0.3100012,0.18540946,0.0652412,0.11634033,-0.040699642,0.13499382,0.23276475,0.16748697,-0.21603994,0.0065534366,-0.112234645,0.13904166,0.21817853,-0.06415703,0.24196559,-0.25945076,-0.23665266,-0.27973533,0.15795782,-0.30843845,-0.0015466122,0.048260376,0.2980181,-0.1427272,-0.1816521,0.17885642,0.0130885625,0.29113477,-0.05222296,0.17678009,-0.040346343,0.15135251,0.0605576,-0.28479555,0.34913704,0.16817658,-0.07948562,0.018804288,0.226081,-0.13588588,-0.03418368,-0.13454983,-0.16743784,-0.020198463,-0.1798202,-0.46096867,0.10033403,-0.040024742,0.43409047,0.19135843,0.15499036,-0.2813863,-0.2638198,0.16208106,0.2770824,0.19172803,-0.3083541,0.027404824,0.081481546,0.2583015,0.020345544,-0.108938195,0.11192517,0.16295958,-0.1069449,-0.07301304,0.016081607,0.2656689,-0.10942304,-0.3606831,-0.22763057,-0.13007817,-0.04611819,-0.2788987,0.4300499,0.11701755,-0.13886897,-0.15765776,0.16711088,0.1269531,-0.49063605,0.054432575,0.08779555,-0.14170289,0.03195726,-0.039499205,0.093244545,0.029399775,-0.08271411,0.077093475,0.118405975,0.07891194,-0.23128767,-0.014292412,-0.18287101,0.09507824,-0.2955922,0.10774167,-0.052863963,0.18924111,0.20762326,-0.02117737,-0.02961757,0.22735539,0.13347907,-0.01111255,0.13235357,0.21666515,0.20196258,0.12501165,-0.07146007,-0.13281211,0.063332245,-0.09477722,0.42721194,-0.15179507,0.2461138,0.0683596,0.38895538,-0.06727481,0.03951034,-0.28802976
箭头,0.43417537,-0.15354209,0.19659805,-0.02742016,-0.03651432,-0.33350784,-0.16005221,0.20148978,-0.053227816,0.0854344,-0.034219064,0.14938082,-0.24832687,-0.042765077,-0.28684217,-0.033956483,0.047551837,0.08465579,0.06677169,-0.3834602,-0.007908843,-0.19332963,0.2356967,-0.028497882,-0.25945273,0.32484192,0.16999811,-0.05050169,-0.65674114,-0.13875958,-0.00204035,0.14690201,-0.100981385,-0.07351415,-0.56833607,0.25204897,0.31785074,0.06146967,-0.096841715,0.054015413,-0.087565035,-0.09185196,-0.020860968,0.073518015,-0.16015367,0.09549401,0.22548187,0.010529976,0.012408941,0.089020126,0.3753034,0.122477554,0.20255542,-0.017393952,0.09752584,0.05136563,-0.073685944,0.10443141,0.06518264,-0.27483153,0.015804106,-0.2877264,-0.014577168,0.05893179,-0.22317244,-0.09894778,0.07821729,-0.1940918,-0.057279386,0.013991801,0.061240382,0.1726063,-0.03229172,0.12574832,-0.04229838,0.21334806,0.0748255,0.17717677,0.09793924,-0.30664685,0.11551174,0.054546725,-0.19431803,0.32993454,0.1901608,-0.2269953,-0.05474246,0.07742651,-0.0647273,0.28990066,0.17185818,0.21000981,-0.24667233,-0.06387427,-0.39474458,0.24250811,0.41097194,0.03023866,0.19221048,0.12957871,0.0716179,-0.428979,-0.081560716,0.0023565565,-0.019211479,-0.04295062,-0.10683851,0.114134766,-0.13082452,-0.18809503,0.36359105,-0.22505443,0.2073344,-0.11203478,-0.08557693,-0.069940165,-0.12890147,-0.13779141,0.03656403,-0.5763594,-0.021210197,-0.35932475,-0.05685904,-0.27133122,-0.03867551,-0.09172559,-0.42628863,-0.024998542,-0.114757374,-0.03748565,0.22226983,0.17109697,-0.037243597,0.01322826,0.11478881,-0.13400997,-0.24705318,-0.19417301,-0.025081875,-0.16525091,0.03291138,0.091929376,0.1359266,0.21775793,0.25494444,0.17847899,-0.15212406,-0.11732225,0.33980066,-0.19642676,0.1252399,0.046982497,0.02160329,-0.27406842,-0.3758036,-0.19868913,0.10803482,0.24106921,-0.121518694,-0.03436728,0.25322318,-0.21126881,-0.08788079,0.20680927,0.05860571,-0.20770891,0.15521416,0.016327983,-0.3148333,0.3492381,-0.050902683,0.26628044,-0.022674782,0.1497319,-0.064429045,0.14953658,0.38299355,0.34283322,-0.46318337,-0.1661886,0.044135064,0.04775995,-0.18560193,0.2533463,0.019298315,0.043316144,-0.041314434,-0.35982966,-0.079516895,0.036657546,0.28984642,-0.3294184,0.21224712,-0.17923507,0.04196857,-0.20307526,-0.1691522,0.07901762,-0.15006036,0.31702992,-0.31851724,-0.06511779,-0.11596343,0.12516256,-0.23032132,-0.25753924,0.10223415,-0.13163991,0.1913591,0.12903994,0.068820596,-0.4948468,-0.21679485,0.012031568,-0.056203693,0.099474505,0.45008555,-0.06377769,-0.027010234,-0.042703696,-0.2379791,-0.37682974,0.34624776,0.05614769,-0.2375093,2.4146064E-4,-0.3234673,-0.13605173,-0.11164471,-0.04618663,-0.24348632,-0.1143735,0.021510758,0.16254865,0.49857068,0.23662904,0.35244983,0.044386186,-0.03612115,-0.034759838,0.15820463,-0.018267667,0.16077143,-0.07651716,-0.111047685,0.016059829,0.32902187,0.10272774,-0.28352943,0.067622155,0.11613844,0.2656078,0.20355104,0.29816154,0.06486602,0.11300813,0.6191205,-0.18837959,0.1743283,-0.030819768,0.10203918,0.17137083,-0.19108537,0.039964084,0.0572735,-0.04175476,0.1395867,0.06676939,0.06523857,0.09971698,0.2850738,0.031574126,-0.45669222,-0.4061161,-0.03087221,0.33719128,-0.3583503,-0.275625,5.393923E-4,-0.34068623,-0.19725434,0.30221182,-0.26128227,0.22517537,0.0018672992,0.037040427,-0.21209729,0.06439774,-0.11268174,0.28272948,0.39240497,-0.3328277,0.22807331,-0.050889913,-0.1496076,0.026534485,0.18182924,0.5115605,0.36518526,-0.05300837
搜啊,0.38384116,-0.3973219,0.3258996,0.18154265,-0.081365675,-0.37989184,-0.18137269,-0.0022457591,-0.062150363,-0.045804523,0.081640854,0.1737807,-0.43037546,0.121384814,-0.108615905,0.09266945,0.22667354,0.38235998,-0.26174593,-0.44176227,0.45623568,0.8097195,0.23701994,0.11603459,0.1393785,-0.08079922,-0.05709156,0.26320258,0.35861206,0.03387381,-0.08536504,0.46084234,0.32413375,0.04416427,-0.2818733,-0.30130425,-0.267367,0.13582055,0.010544204,-0.6774866,0.32294086,-0.19153866,0.4079261,-0.45002303,-0.31256902,-0.22755799,0.1266229,-0.07500114,-0.0063239955,-0.0046905433,0.44097,-0.27361727,-0.09247235,-0.052733187,-0.70060897,-0.0020671645,-0.21789771,0.23825605,-0.33844328,-0.38379794,-0.49083903,-0.08278297,-0.40793702,0.5053117,-0.15114626,0.10887688,0.10477818,0.14841276,-0.23698443,0.028768398,-0.19327997,-0.0029234157,0.5647622,0.17374842,0.4057013,-0.58696413,0.06977247,0.11400535,0.48965508,-0.19889121,-0.31741306,0.13807744,0.15298179,0.32519132,0.49146003,0.16151942,0.053782426,-0.044238202,-0.43583694,-0.1406836,0.13370919,-0.16150676,0.34711033,-0.2517004,0.074522115,0.26154253,0.16740413,0.02599663,-0.19459356,0.043263376,0.15804936,-0.24644022,-0.22321646,0.13939938,0.31875628,0.29335722,-0.3756287,0.30363223,0.21153232,0.086306415,-0.054443322,-0.12439432,0.36990413,-0.6452303,-0.24007589,-0.28571853,-0.36186033,-0.23745821,-0.027463306,0.15511349,0.14943027,-0.091699846,-0.07357176,-0.13107926,0.06670217,-0.123238176,-0.27345788,-0.38586774,0.13218959,-0.21459608,0.3009207,-0.6577196,0.4319443,-0.14345042,0.21454921,-0.0069134524,-0.08666388,-0.18577921,0.2873096,0.2590787,-0.10739905,0.10438725,-0.06631635,0.288673,-0.12101485,0.14567533,-0.10040916,-0.23091722,0.39032713,-0.22922173,8.741446E-4,-0.33898607,0.031032916,-0.2672964,0.34906822,-0.35369608,-0.24704407,-0.15821992,-0.09061761,-0.33927613,-0.024650397,-0.20797808,-0.18887006,0.3698446,0.4003206,-0.27271885,-0.3719475,-0.24994023,-0.20463742,-0.32873765,0.49480182,-0.14055255,-0.08936397,0.35633105,-0.018432772,-0.013537989,0.20143676,-0.11007053,0.3345937,0.49518526,-0.11222922,0.14291455,-0.14094919,-0.028683031,-0.23312883,0.5616466,0.11889783,-3.5595542E-4,-0.15256923,-0.02284166,0.35916647,0.12819986,0.06133683,0.52461636,0.43622267,0.15783392,0.07713693,0.20638923,-0.2810156,-0.2685426,-0.41705486,0.19326325,0.11867949,0.0014425844,0.14251803,-0.1279877,-0.23109865,-0.20867985,0.14995524,-0.032938946,0.18431757,-0.16496281,-0.4807829,0.122019194,-0.08712619,0.34482405,0.25521696,-0.19325209,-0.039132506,0.13411948,-0.61049014,0.26160228,0.07479237,0.07584307,-0.4777555,0.5262176,-0.14400351,-8.180336E-5,0.11499785,0.4624474,0.32262245,0.03770441,-0.004356856,0.8192572,0.003221699,0.019266946,0.0034525532,-0.23939595,-0.178765,0.2201263,-0.110096104,0.12865634,0.2607352,-0.6049387,0.17051002,0.31554565,-0.06773376,-0.51892215,0.24581996,0.28518736,0.082311034,-0.07630681,-0.28367504,0.010776093,0.06452131,-0.0687784,-0.27876872,-0.08618752,0.11255075,0.5340586,-0.3905663,-0.21338706,-0.29185835,-0.39468056,-0.41099763,-0.2772981,-0.43580085,-0.4564868,0.14473394,0.12712198,0.14249526,-0.07443957,0.39700636,-0.056857847,0.054893184,0.21505113,-0.050792202,-0.09657298,0.1206033,0.019760465,-0.32507142,-0.11053261,0.3788456,0.21724924,-0.3344888,-0.009454205,-0.09697822,0.3459379,0.22847195,-0.2411182,0.06773444,0.25826985,0.40958437,0.19493921,0.05049998,0.08980735,0.16658042,0.087985754,-0.19442149,-0.11890443
挡灰尘,-0.053622223,0.07494506,0.11534457,-0.04175244,0.21262065,-0.026095942,0.16911343,0.21090399,-0.03794552,0.05564573,-0.1246581,0.14730704,-0.14528224,0.016929183,-0.36253482,-0.067202225,-0.062038053,0.023387337,-0.13251227,0.03196893,0.04422486,0.08254451,0.2420512,0.20004897,-0.29792404,-0.12276799,-0.06433718,0.07738917,-0.027021488,-0.0075025503,-0.0017180503,0.14491919,0.10299774,-0.017576633,-0.2730923,-0.09298279,-0.037892498,-0.23021537,0.048300795,-0.010983663,-0.09663176,-0.17367065,0.2148757,-0.16871327,-0.2361495,-0.087067984,-0.09563004,-0.17108649,-0.0060068895,-0.09453519,-0.016766427,0.05020282,-0.14352216,-0.3066753,-0.07602803,-0.0068258396,0.05092057,0.2382987,0.079517804,-0.21138445,0.07525574,0.09645991,0.031956524,0.0061330115,-0.09265794,0.13195805,0.14349341,-0.15432552,-0.049136892,0.119629525,0.13704866,0.019773504,0.15963966,0.01999889,0.13975973,0.19321428,-0.06369304,0.04612806,-0.13792239,-0.2541336,-0.0024707108,0.015662218,0.16345532,0.09589126,0.0057024527,-0.014557699,-0.023109477,-0.03098719,0.009491034,-0.15616266,-0.1501117,0.28955212,-0.06561388,0.004628561,-0.0025728182,0.02082548,0.29440156,0.05270521,0.13190733,0.049183566,0.23187163,0.09070786,-0.2451979,-0.007507764,0.09368334,-0.15619582,0.046130907,-0.13151693,0.024610488,0.20940919,0.11671158,0.24384303,0.043627266,-0.11138741,-0.08086206,-0.072037734,0.0094880285,0.026258364,-0.15518478,-0.0928571,-0.12695803,-0.051216085,0.21585366,-0.0093061365,-0.107217014,-0.13694006,-0.14486906,0.20624293,-0.015583383,-0.13041508,-0.019048898,0.04430648,-0.022719778,-0.009737727,0.005423026,0.08615916,0.05610275,-0.2409329,-0.07588502,-0.18462336,-0.02750681,0.038383286,-0.0753639,-0.0155460015,-0.04441034,0.095536135,0.07138908,0.10025124,0.060422648,0.11688659,0.0041233124,-0.0352492,0.2442101,0.023142012,-0.15266861,0.12015223,-0.048616532,-0.113206446,-0.10999594,0.23579158,0.052136738,0.034638938,-0.15651886,0.18732418,-0.048078865,-0.05135386,-0.008405216,-0.11016601,-0.013745165,0.1107383,0.06395318,-0.096638784,-0.060183782,0.04366628,-0.08853761,0.047315564,-0.03196428,-0.117011614,0.2416682,-0.13760108,-0.037011296,0.076839104,0.06718187,0.10612215,-0.15648678,-0.08226669,0.2689734,-0.04050196,-0.08159072,0.13183334,0.06071647,-0.13242479,0.05325107,-0.019960951,0.06378215,0.079847954,-0.08633708,0.10488981,0.09766033,0.16846511,-0.033869788,0.09935271,-0.043987125,-0.04900321,-0.21207659,-0.14781779,-0.11680606,-0.28763515,0.035012856,-0.09687117,-0.015511108,0.030026317,0.033510078,-0.066803984,0.015328848,0.012073452,0.20104024,-0.055747885,0.09907225,0.014214858,-0.04153778,0.18013951,0.12631796,-0.06589715,0.06417433,-0.12538482,-0.015541177,0.13822673,-0.18381946,0.0036657187,-0.26309252,0.128269,0.18231983,0.08137579,0.21114874,-0.04669585,-0.17769673,-0.06839843,0.11467904,-0.036772784,-0.08186973,-0.072365664,0.09740343,0.081678934,-0.08105569,-0.1598617,0.06718214,-0.122356124,0.0776891,-0.1351488,0.016431117,-0.11058102,0.1260757,0.436673,-0.27297145,0.024387155,0.10838025,0.19063835,0.11859355,0.12207887,-0.2152885,0.11902666,-0.3098203,0.10794313,0.056593306,-0.1394102,0.07864525,0.05936505,-0.26262897,0.13842879,0.0135998465,0.013717411,0.1348606,-0.2912775,0.03138507,0.18232949,-0.044337235,-0.08722008,0.020691395,-0.0381502,-0.0145283975,0.17816988,-0.10648748,-0.08736074,-0.057804603,-0.18458965,-0.16508155,0.20579855,0.20127079,0.106425636,0.24903743,-0.106186904,0.14776693,0.054362297,0.023902062,-0.08599716,0.14795768,0.08461602,0.20307174,-0.10443349
体重秤,0.20865135,-0.19601572,-0.38250437,-0.082974225,0.103413016,-0.19808502,-0.27877748,-0.2688113,-0.541249,-0.19180144,0.0880218,0.16746008,0.1683491,0.25967026,0.075384416,-0.23991795,-0.0138897635,-0.13282052,0.034840886,0.14467205,0.07351803,-0.102130204,-0.048806116,-0.06742191,-0.6602595,0.029770885,-0.20874506,-0.017331196,0.13208754,0.010809642,-0.5963081,0.026158025,0.034998145,-0.08954639,-0.4553016,0.15203193,-0.16818312,-0.0029713335,0.05586417,0.1846142,0.03893476,-0.10803105,0.16282487,0.06739528,-0.052049994,0.0649457,0.1331006,-0.2567543,0.21706606,0.014808556,0.17188239,-0.12758593,-0.23323609,-0.20681167,-0.15175626,-0.4389604,-0.055758905,0.09103616,-0.16977409,-0.13231379,-0.17274815,0.099508666,-0.22582753,-0.42822123,0.24700294,0.55910635,0.19186725,-0.17154285,0.1412627,0.18568212,0.2861759,-0.30436686,0.23648594,0.010166648,-0.18885553,0.2572713,0.15482342,0.24322829,0.28497282,-0.2118265,0.16066404,-0.21435869,-0.20948929,0.083863154,-0.2068248,-0.1719803,0.12421461,-0.20705636,-0.12460109,0.18151024,0.05702058,0.13615124,0.20494503,0.15952876,-0.020437,0.0773212,0.15387082,0.026471576,0.38249704,0.3480024,0.10250538,0.49051684,0.22676417,-0.16531284,0.31520936,-0.4678112,-0.25354576,-0.20314942,0.19465315,0.0830509,0.32708484,-0.27953398,-0.047223523,-0.04942217,-0.09009457,-0.045923784,-0.04103673,0.015054155,0.12845784,0.5112616,-0.26173994,0.120345645,0.08690309,0.18043096,-0.104544446,0.19242789,-0.082312375,-0.021997783,-0.3892649,-0.16703208,0.013507876,0.09139649,0.547539,0.05221084,-0.089775465,0.37346512,-0.15152839,0.0011026529,0.17487349,0.42652097,-0.4227143,-0.10535959,0.09931537,-0.047762897,-0.29799715,0.22845812,-0.06175066,-0.4679986,-0.07892787,0.10728833,0.30441344,-0.0072315102,-0.3514595,0.07174195,-0.12588438,-0.18126415,0.19852953,0.19248421,0.17938492,-0.09931635,0.12950999,-0.20159958,0.21829161,-0.047795106,-0.15686367,-0.25427943,-0.31321245,-0.047950346,0.013197327,0.39300773,0.030168587,-0.037893765,0.02535638,-0.18596268,-0.3206966,0.15295877,0.005433585,-0.20721835,-0.03303868,-0.065481536,-0.06755912,0.13049209,0.12892105,0.35187596,0.19733293,0.0084167635,0.6949068,0.09458631,-0.0788668,-0.3943813,-0.053362485,-0.008672498,-0.15804426,-0.047000602,0.08911533,-0.2223396,0.016032685,0.3400127,0.16778074,0.2512033,-0.2937361,0.16630271,0.018155448,-0.046044383,0.057372887,-0.08295418,0.11384143,-0.03518373,0.0038481387,-0.024955595,-0.058348145,0.21087274,0.24366546,-0.07104388,0.44455907,0.182177,-0.1276594,-0.098601386,0.009411957,0.015860084,-0.13840686,0.2802,-0.032462835,0.16178912,-0.27923578,-0.42318413,-0.07729626,-0.12899433,-0.051836126,-0.21121307,0.035667542,-0.14293747,0.37929565,-0.08776431,0.38485518,0.17029046,-0.25129423,0.23278578,0.015676524,0.070675105,-0.30460027,-6.870408E-4,0.35263857,-0.2598323,-0.3740344,-0.06710238,-0.042360973,-0.061414793,0.3950658,-0.36127442,0.2729073,-0.036924113,0.2831369,0.0016454222,0.04672219,-0.10617586,0.45588234,-0.02501515,0.334723,-0.14192787,0.28312373,0.53456473,0.23970117,0.27120075,0.071833916,-0.3992036,-0.37613156,0.04726499,0.018102631,0.44272304,-0.26666665,0.2242014,0.058399882,-0.031887032,-0.059978813,-0.44014913,-0.24481922,-0.015623239,0.023442322,-0.1406531,-0.1751461,0.22061625,-0.2948454,0.4542623,0.022054296,-0.3124653,0.22841418,0.31347567,-0.27589396,-0.07488298,0.091643356,0.30746102,-0.0333921,0.4348577,0.107553855,0.05422762,-0.23618051,-0.13911061,0.17326738,-0.2491272
点左右,-0.17578384,0.19468543,-0.22334617,0.37558576,0.23476213,-0.43815365,0.0034971756,0.13298388,-0.21287236,-0.42273372,0.1233736,0.14078641,0.43613255,-0.25756004,-0.22488426,-0.35691136,-0.36555257,-0.15911311,-0.09716818,0.21000354,0.06388225,-0.33201823,0.162622,-0.084574625,-0.19135247,0.27264735,0.091732696,0.4711175,-0.043001782,0.37516063,-0.049839664,0.024773724,-0.042893432,-0.07923888,-0.12415402,0.5458336,-0.111549914,0.2021488,0.049949292,0.06807165,-0.6544753,0.026744414,-0.27230048,-0.0712735,-0.26663813,-0.40437195,-0.2385445,0.079898365,-0.23856299,0.46651527,0.39610174,-0.32202393,0.17910452,-0.09511789,0.24311377,0.25171494,-0.40191072,0.08040363,-0.18789868,-0.17515491,-0.018528163,-0.047382876,0.09098871,-0.07084421,0.16539839,0.29662853,0.36550245,-0.18654786,0.16032371,0.03448983,0.10471755,-0.02133924,0.15374066,0.12794895,0.20331678,-0.22984733,0.124700226,0.04517207,0.3687706,0.09882002,-0.013154467,-0.149859,-0.28790328,0.012733405,-0.047797747,-0.03247455,0.020771477,0.39856163,0.16514459,0.3227301,0.15082976,-0.21164727,0.5207119,-0.06341062,-0.13188896,-0.5137082,0.09227361,0.18374327,0.2703744,0.34672815,0.046053447,0.007247699,-0.12416927,-0.17801757,-0.18127397,0.18327136,-0.27662715,0.34080723,0.19805798,0.19195709,0.11814451,-0.29185876,-0.063661836,-0.12320219,0.21973531,0.13502695,-0.19466607,-0.07676419,0.015050227,-0.013127347,0.15181424,-0.015063135,-0.20239773,-0.02270713,-0.24338938,0.03580174,0.08323013,-4.6461413E-4,-0.013971719,-0.013614055,-0.26262224,-0.09438388,0.062369734,0.2690122,-0.071591705,-0.1507275,-0.028918605,0.10829918,-0.24268597,0.15723628,-0.33154926,0.12355356,0.09890642,0.1494278,0.05397391,0.22897562,0.2216274,0.005462918,0.023235084,0.033876333,0.010013319,0.053982206,-0.15145774,-0.4499457,0.21792762,-0.299445,0.18979633,-0.15907821,-0.19120724,0.22807124,-0.16061798,-0.21051638,0.031361513,0.092261195,-0.03999686,0.11520556,0.0017824873,-0.2120448,-0.096725725,0.052972022,-0.41880688,-0.061019205,0.22762936,-0.054170232,0.33823222,0.23992737,-0.21650757,0.008026421,0.025385829,0.16735059,0.08251256,-0.14919905,-0.06448357,-0.25581652,0.21117194,0.5413683,-0.038738515,0.07218372,0.30182287,0.21387142,-0.16353804,-0.043694455,-0.22829661,-0.18309128,0.013156918,0.29935107,-0.28196266,0.1444481,-0.060056675,-0.17820422,-0.46693212,0.08913272,-0.03437792,-0.01934828,0.06426205,0.3444054,-0.2036854,0.009620256,0.20630455,0.1400595,-0.05466851,0.18450938,0.08148117,0.20816968,0.015916394,-0.14055511,-0.6333555,0.0049127797,0.06243061,-0.29192516,0.09320648,0.19459878,0.2189526,0.032531776,0.16044049,-0.19906244,-0.13773642,-0.028645415,0.39462718,0.1551726,-0.20653903,-0.13418639,-0.21336877,-0.35176405,0.046089754,-0.06563983,0.15695712,0.22356194,-0.043662127,-0.36039117,-0.20437151,-0.17071413,0.045683373,-0.30868143,0.20024543,-0.074718855,0.06210942,0.30104128,-0.44697276,-0.15395547,0.21636292,-0.14424531,0.13871902,-0.0114017185,0.41569063,-0.09392674,-0.2845894,-0.25864372,0.08950693,0.26799473,0.04207642,0.13400891,0.25704515,-0.08606968,-0.032607034,-0.55080426,0.01692275,0.11610999,-0.15570597,0.1528804,-0.039956883,-0.38614842,-0.2590084,-0.25312197,-0.23943222,0.3126705,-0.117631845,-0.1795152,0.40812382,0.16595694,-0.13026705,0.14512259,-0.19006872,0.13174649,-0.17655087,0.34342667,0.12071118,-0.14208643,0.20729673,0.4216168,-0.27294695,-0.24994005,-0.0998046,-0.3923935,0.19546427,0.050011627,0.22985901,-0.28638372,-0.04589472,-0.10713918
拼的,0.36637676,0.026642278,-0.2550655,0.13684492,6.0480053E-4,0.03369458,3.523883E-4,-0.11225239,0.033354647,0.10726318,0.1715414,-0.109659806,0.08638827,-0.047959365,0.07884194,0.28597745,-0.08599996,0.14277488,0.22109637,-0.08253435,-0.32265553,0.10382256,0.20255764,0.02671898,-0.09958463,-0.03707871,-0.09054669,0.13494462,0.070097506,-0.19838467,-0.04708269,0.13940632,-0.11208987,0.20328382,0.14889811,0.02051337,-0.0968091,-0.106106736,-0.02552035,-0.011596414,0.04320878,0.149784,0.30107403,-0.22156475,-0.5211542,0.50937605,-0.022803865,-0.2097182,-0.014548118,0.25070488,-0.14472425,0.16304341,0.17160715,-0.13638215,-0.19910415,-0.24156454,-0.27259517,-0.21200311,0.27978745,-0.18216904,0.09587073,0.28647634,0.03651636,-0.0809246,-0.22447082,0.3204854,-0.3182658,0.009496408,-0.004203603,-0.10314022,-0.041750252,-0.1694586,0.16086677,0.0671347,-0.06122856,0.27577445,0.031938083,0.11942496,0.17588876,-0.32293147,-0.10596422,0.018713308,-0.17141794,-0.24878082,0.11142198,-0.30344263,-0.2077423,0.008653816,-0.31305057,-0.036543835,0.18607718,0.05594737,0.29658777,-0.079481296,-0.031146191,0.25556323,0.26804733,-0.114911504,-0.14136638,0.037153892,-0.21176507,-0.154195,0.07255576,0.16253439,-0.07392835,-0.17483638,0.28079966,0.038080852,0.08001722,0.16833247,0.14046435,0.3367111,0.033110242,0.07070903,0.022331761,0.10007996,0.322485,-0.014874834,-0.088159464,-0.22931507,-0.27823007,-0.11759799,-0.015074753,0.41916513,-0.59719145,-0.20710804,-0.018212013,-0.39244357,-0.22609442,-0.17163977,0.03599773,0.33095917,0.010924969,-0.13379692,-0.021470672,0.0850468,-0.11899557,0.28465894,-0.10078807,0.22868724,-0.0220853,0.00418632,0.0811234,0.22369105,-0.07392407,0.10143011,-0.09418549,0.43200472,0.20118478,0.021088934,-0.08298995,0.016272405,-0.18138605,-0.12157694,-0.27185655,0.14911713,-0.09552172,-0.18159048,-0.04002327,-0.2386066,-0.058603987,-0.1819462,0.0721178,0.2794282,0.3356553,0.022574646,0.20767939,-0.16444977,-0.26780283,-0.012829696,0.27725238,-0.07409689,-0.06600582,-0.041433457,0.09862004,-0.114716545,-0.06477888,-0.08726298,-0.32554346,-0.09471757,0.14764135,-0.017415626,-0.11807126,0.31919348,-0.0565559,0.08717037,0.14111316,-0.086972535,0.1613956,-0.21299261,-0.12762362,0.03221381,-0.2959345,-0.24016082,-0.040121663,-0.11395609,0.064811334,-0.0306587,-0.025010942,-0.49868584,-0.022243083,-0.08215701,-0.099215746,0.21324135,0.17757805,0.024950597,0.1377557,0.040368073,0.12375222,-0.24915987,4.286184E-4,-0.37287772,0.11115534,0.21463366,0.3478477,0.083018005,-0.27568445,-0.27145448,0.164,-0.20782726,0.024172701,0.07150831,0.094008476,0.11273001,0.042200454,0.19264136,-0.1813597,0.20303449,-0.0507276,0.050236367,-0.20505463,-0.20278732,-0.32093462,-0.21987274,-0.0038422572,0.070550345,0.2275449,-0.32286537,0.304591,-0.06184991,0.052548867,-0.15520382,-0.18310004,0.03932159,-0.060658976,0.10533134,0.21685314,0.052862532,0.22533736,-0.041844413,0.0052803527,0.19418186,-0.104515575,-0.054839537,0.06107786,-0.13885486,0.14541146,-0.10972104,0.06379366,0.02755351,-0.29713765,0.41692412,-0.17584966,-0.10449724,-0.08232688,-0.11512495,0.14491947,0.031125639,-0.19264974,-0.083747655,0.003199076,0.002378937,0.06740403,-0.22493008,0.0182218,-0.07146862,-0.29037923,0.20907184,-0.18687575,0.034784507,0.20638621,0.14773177,-0.22089286,0.2678702,0.42817697,0.47201985,-0.03289569,-0.13860367,0.2081944,0.04139495,0.09028068,0.08567796,-8.931136E-4,0.032277733,0.18554881,0.01971731,-0.04981268,-0.0031041715,0.28534973,-0.14311382
华为p9,0.10205942,0.19966936,0.0437317,0.06489183,0.060580615,-0.007021286,0.19018039,-0.06255099,0.061220188,-0.020744804,0.1503594,0.014246002,0.06657731,-0.35843688,0.27668664,0.13372022,0.10677396,-0.107933044,0.08895822,0.010598314,-0.088063344,-0.05023895,-0.121509805,0.0875695,-0.15424055,0.07567581,-0.08932504,-0.21414806,-0.12364226,-0.072514616,-0.21346886,-0.033483647,-0.05821586,-4.8012187E-4,0.14287716,-0.027840175,0.085449785,-0.06769485,0.12599422,-0.052150346,0.059809648,-0.091577634,0.06273734,0.17764954,0.1979651,0.03577069,0.20127966,0.18923503,-0.06495025,-0.10448757,0.037676368,0.10326321,-0.07820829,0.013854301,-0.05075145,0.05204385,0.0063650506,-0.0017599947,0.0034815858,-0.0658029,-0.17363873,0.028645752,-0.0012838673,-0.050419632,-0.046165086,-0.073556006,-0.38706186,-0.17753206,0.061934214,0.05937939,0.043378253,0.14685105,-0.09766275,0.17936046,-0.048086755,0.05365508,0.07339075,-0.18156156,0.18306038,0.264453,-0.18939151,0.20049842,0.05363491,-0.12675251,0.14430915,-0.009589291,-0.20296071,-0.039427858,-0.08120116,-0.065864086,-0.058636416,0.16796276,0.12003113,-0.045403212,-0.016255561,0.03245107,0.22844753,0.06693297,-0.15434875,0.12451081,0.073889025,-0.17244084,0.0783274,0.12303154,-0.041289274,-0.15147533,0.06877463,-0.17816998,-0.008812518,0.0601453,-0.14699668,-0.012021606,0.031824663,-0.15404852,-0.18493187,0.21901762,-0.035506528,-0.05433117,0.31600076,-0.040994924,-0.12438405,0.017480018,-0.12427685,-0.08464127,0.021183047,-0.03423343,-0.044125587,-0.01754455,0.012148805,0.013769125,-0.2883898,0.020415846,-0.2052944,0.07954819,-0.10813995,0.02410048,-0.19027705,0.40608704,0.032487515,0.12225621,-0.2630053,-0.11101324,-0.011171821,-0.18864188,0.17126839,0.10426023,0.13295503,-0.008125573,0.034954913,-0.03808267,-0.084139004,-0.21051699,0.058502004,0.050674353,0.044068683,-0.074837066,-0.08573366,0.024251774,-0.12844378,-0.04080414,-0.12116555,0.26896068,0.06839356,-0.045914862,0.09865407,0.066113785,-0.18267174,0.0286632,0.042108823,0.18770611,0.070308775,-0.038011696,-0.12458871,0.03221853,-0.004614232,0.1484967,-0.0013290175,0.020938184,0.094426475,-0.06927898,-0.20583522,0.067917794,0.018943418,-0.055863213,0.2215706,0.15185082,0.10114513,-0.15974183,-0.138857,-0.061737657,-0.21065284,0.011567202,0.24772038,0.031983014,-0.21662782,0.3024506,-0.038782094,-0.11379591,-0.116833515,-0.050041728,-0.13264264,0.10529754,-0.048442937,-0.0859746,0.15009561,-0.098748595,-0.14058806,0.18286695,0.008067545,0.14388974,0.011527813,0.10532132,0.36372378,0.09593623,0.045942575,-0.1656498,-0.046645448,0.068138234,0.13815099,-0.110041596,-0.25534979,-0.02280261,-0.19260977,-0.37127218,-0.14418814,-0.070418596,0.08629643,0.14476097,-0.024009505,-0.3118759,-0.13219452,0.12003797,0.012479246,0.061392713,0.0128223365,0.20328479,-0.11114191,0.113510564,0.024188058,0.12715432,0.10387258,0.08421885,-0.199834,0.011577905,0.24030995,-0.077555105,0.06184188,-0.07728488,0.0062412503,-0.1734288,0.09582578,0.011130059,0.070861824,0.06961633,-0.1593614,0.007558728,-0.091410525,0.16708215,0.21527644,0.031809803,-0.18412918,0.07435066,-0.030794404,-0.31077898,0.055171505,-0.18840235,-0.011618811,-0.13870835,-0.14088671,0.0944684,0.09298693,0.17300142,-0.058055475,-0.05403767,0.24794695,-0.13783747,-0.061386965,-0.0031080216,0.20397636,-0.21659166,0.03583117,0.17973725,-0.08344296,-0.19172888,0.099596575,0.041145086,0.011935948,-0.07800306,-0.3079466,0.034376897,-0.136755,0.06796139,0.091227636,0.0037150949,-0.0038934003,-0.14524545,-0.12032652,0.24151441,0.13015705,3.2114895E-4
让人很烦,-0.04967543,0.08536462,0.081700265,-0.15003711,-0.35648176,0.018691825,-0.091953136,0.15732056,0.04544471,0.513225,-0.12551698,-0.29417282,0.12605591,-0.14538881,0.052840702,-0.049348548,-0.23420882,0.15661412,-0.06978186,0.19495016,-0.0302627,-0.046411734,0.29625654,-0.05606258,-0.19318937,0.010320153,-0.30829474,0.038509414,0.0757445,-0.3918084,-0.0032933154,0.07851103,-0.038294807,0.17483617,-0.3452831,0.003946147,0.08727684,-0.2885655,-0.111173786,0.27106407,-0.036200427,0.039419405,-0.37112987,0.29401004,-0.07710149,0.028756618,0.03382057,-0.24961063,0.06147687,-0.11719701,0.13349018,0.18497455,0.28334537,-0.047389455,0.11371659,-0.15162985,-0.17487788,0.031988993,0.16843608,-0.032832175,0.11000807,-0.052965812,-0.04304424,0.05813588,-0.02262365,-0.023801642,-0.021754565,-0.13426715,0.038936798,0.22868997,0.028310543,0.046479583,-0.4391747,-0.0426013,0.0058196485,-0.028367775,0.13832603,-4.2974367E-4,-0.011157824,0.1978903,-0.35678247,-0.14128925,0.020019162,0.2176423,0.2824896,-0.02908726,-0.019262437,0.1740724,0.12471066,0.046514083,0.03781792,0.23812328,-0.12515852,-0.119392484,0.40748766,0.13167751,0.33598366,-0.02509463,0.19856773,0.086711,-0.2993716,-0.20339644,0.016246095,-0.01952844,0.06480703,0.2731706,0.037854504,-0.17350228,0.061917454,0.13926665,-0.03967333,0.017102499,0.103026815,0.28531912,-0.24761514,-0.020760406,0.12341017,-0.09713281,-0.16960102,-0.008349571,-0.3165908,0.03931738,0.052861124,0.19818826,0.14218627,-0.0088509,-0.17054968,0.11266739,-0.04485564,0.14780104,0.010454176,-0.14802203,-0.112071104,-0.042179585,-0.08278439,-1.0668891E-4,0.21189421,-0.29505637,0.21064608,-0.46108326,0.13741288,0.03519541,0.05856038,0.14479493,-0.57229185,-0.012297702,-0.13254867,-0.12798207,0.47036356,0.18186222,-0.078102395,0.10357364,0.100329936,-0.15964,-0.06492727,-0.19640455,0.29351175,0.015668705,-0.031213017,-0.25306574,0.068935245,-0.0940104,0.28479552,0.011712527,-0.06896686,-0.2247056,0.2555386,0.22582053,0.07233887,0.0120508475,0.10435202,-0.16687183,0.10582887,-0.07449196,0.12104814,0.35618886,0.15648356,0.1292936,0.0024234115,-0.010382518,0.21309303,0.0960284,0.09751433,0.22675824,0.057474695,0.16186385,-0.011523913,-0.057883482,-0.080463775,-0.012784646,0.22019584,0.09357742,-0.20852862,-0.23488368,-0.2551145,-0.068383396,0.14433551,0.03439735,0.1053311,-0.27932966,0.16831528,-0.2632998,-0.049576983,0.6194172,0.13943161,0.10296482,-0.040531494,-0.01839955,-0.05190316,0.5546957,0.022886407,-0.23044546,0.06144778,-0.130181,0.39236927,0.02811215,0.15902945,-0.08497078,0.052098155,-0.013400645,0.086151965,0.27368626,0.120428555,0.33605418,-0.11927166,0.047598973,-0.31490666,-0.25028697,0.0053360243,-0.052416362,-0.22859704,-0.043291826,-0.16806486,0.117670074,-0.05748346,-0.25967547,0.3176529,0.34313443,0.24303624,-0.07957855,0.25712022,0.33666098,-0.011280876,-0.32094395,-0.2751282,0.3961681,-0.085238375,0.21337777,-0.025133548,0.08634448,0.09722034,-0.0056589004,0.10620636,-0.1986016,0.10817274,-0.16527312,-0.10080438,-0.22806288,-0.06208767,0.28850293,-0.19244465,-0.1493241,-0.08421345,0.20867816,0.06302872,-0.16565695,-0.03507735,0.57016075,-0.07646397,-0.051985223,-0.24102998,-0.16671214,-0.24791464,0.074567266,0.23338664,-0.04406744,-0.34866968,-0.20323826,0.36757955,-0.044716265,0.10080403,0.008393238,-0.19851078,-0.15501837,-0.076319136,0.1688873,0.07197233,-0.057705637,-0.09509376,0.075131886,-0.01185063,-0.020675166,-0.1949883,-0.020892492,-0.04975169,0.02356128,-0.01319052,-0.077800214,-0.12676226,-0.18619035
有味的,-0.2155317,-0.019476706,-0.0426446,0.042801704,-0.11939791,-0.111729324,0.16511372,-0.18185358,-0.116721064,-0.027436918,-0.12188216,-0.15306118,0.09477547,0.16716187,0.0036140126,0.08957117,0.092511,-0.06606794,-0.16678195,-0.106017254,0.16391535,0.025489792,-0.051987145,0.035342306,-0.04850519,-0.09290774,-0.16602026,-0.22691204,-0.07584631,-0.03910246,0.06710054,0.1535529,0.11088752,0.11420046,-0.25661126,-0.028282907,-0.0051830886,0.02984188,-0.16143273,-0.2848171,0.26203576,0.021813925,0.10836844,0.019398423,-0.17649484,0.0073745353,0.11348433,0.057781126,-0.028493064,-0.14971589,-0.21051402,-0.050506826,0.035250563,-0.025097324,-0.12652694,-0.17754948,-0.03266655,0.13829026,0.04434228,-0.087586835,0.018891096,-0.019516952,0.0050998875,-0.09953409,-0.077375755,0.1863931,-0.02699865,-0.07956073,-0.19696228,0.0125250565,-0.09377567,-0.16808242,0.062341142,0.17260022,0.06983599,-0.015462983,0.021861285,0.07440508,0.13041726,0.0542847,-0.03149234,0.21859024,0.009281164,-0.053330764,0.06598291,0.10142077,0.18370841,-0.02663058,-0.1780551,-0.12771483,0.12809177,-0.07911509,0.051375285,-0.07497263,-0.033378985,-0.13358536,0.23024334,-0.21811822,-0.17638089,-0.1456056,-0.016262023,0.048792906,-0.26994145,0.0643423,0.02539172,-0.06360061,-0.04354174,0.074243344,0.15800543,-0.15355161,0.0722163,-0.062952556,0.26315898,0.027051352,-0.22947368,-0.103252925,0.13275225,0.123253316,-0.16006783,-0.10476361,0.08100772,-0.03728934,0.046368692,-0.03359126,-0.068987064,-0.060112666,-0.045303248,-0.05817313,0.024249787,-0.06660172,0.22103664,-0.106967635,0.17770594,0.004480662,0.17118286,0.08645529,0.005609652,-0.06424429,0.21793608,0.115039,0.035877224,-0.047402214,-0.11315022,0.09040566,-0.23181562,-0.050953306,-0.004085104,0.19864053,-0.07246976,-0.14910352,-0.02564778,0.040299892,0.023496782,0.19737348,0.058400795,0.006323179,-0.06496038,-0.09694967,-0.012733118,-0.103313886,0.080719344,-0.16730817,0.11418243,0.10248625,0.063863285,-0.0052992245,-0.041908734,-0.05378882,0.13402593,-0.07189847,0.17180826,0.24265075,0.06669879,0.046798263,-0.11949665,0.1436438,-0.08615733,0.044220235,0.057711985,0.1374515,0.115349755,0.07600278,0.07815466,0.09303487,-0.043454334,0.052869834,0.13423285,-0.11750111,-0.01676764,0.39255238,0.102146156,0.23978266,-0.21603243,0.038123637,-0.07682133,-0.042364165,-0.22580889,-0.043876905,-0.21891019,-0.057951532,-0.112028,-0.1140103,-0.014630119,0.05151098,-0.070833914,0.066163614,0.011513427,-0.14795099,0.19962688,0.028232709,0.1919504,-0.10644116,-0.19371517,0.061285052,-0.008698532,0.107891984,0.21884876,0.15032966,0.06282308,0.12509145,-0.10240399,-0.011545604,0.26412988,0.014138116,-0.022591239,-0.08657782,-0.106042534,-0.058694385,-0.0044989907,-0.047252662,-0.09710817,0.03927239,0.08803283,0.011596166,0.09359544,0.031893086,-0.27982783,0.10701641,-0.058458105,0.014121539,0.060531504,-0.00847857,0.044549055,0.053722262,-0.10939194,0.1254773,0.35916978,0.0859176,0.04653202,0.30815372,-0.15915462,0.0374603,0.06382734,-0.03787791,0.04512186,-0.080727376,-0.022948274,0.08796021,-0.10031039,0.05536826,0.09110572,-0.09159058,-0.2871858,0.09145049,-0.0775847,-0.1404309,-0.11178788,-0.017237984,-0.04207709,0.062007513,-0.07448632,-0.19690908,0.14656901,-0.23457795,-0.01825758,0.059377644,-0.0010628765,-0.08716956,-0.16689594,-0.127908,-0.08571391,0.16118291,-0.04717825,-0.04582436,0.14868493,-0.045300532,-0.08601617,-0.082038954,0.16790245,0.065898344,0.1593016,-0.40899912,0.05726395,-0.107014716,0.020346303,-0.03097433,0.046176832,0.14143309,0.07195892,-0.078125834
快速安装,-0.1734416,0.009580525,0.05690516,-0.2231082,0.0625255,0.14700207,-0.12437869,0.1355189,0.161567,-0.057746664,-0.3939168,-0.21001436,0.027295038,0.10057136,-0.46031696,0.16584331,-0.11189474,-0.21259733,-0.17833123,-0.077651896,-0.19395518,-0.2409818,0.16617218,-0.0063544763,-0.26377818,-0.23275988,-0.090889655,0.093910046,-0.2639728,0.086353205,0.26635626,0.032685153,0.09105765,0.020216655,-0.09689167,0.08456215,0.056335974,-0.14361182,0.048058704,-0.1354657,-0.007618196,-0.07024873,0.056721527,0.12766203,-0.022433016,0.17679419,-0.24534236,-0.19844472,0.17323284,-0.15010756,0.1974709,0.20040636,0.0863097,-0.049313817,-0.049806178,-0.032464985,-0.13011818,0.4538171,-0.020995015,-0.3412371,-0.11823704,0.0544404,0.24037485,0.055682067,0.05233299,0.08557988,-0.06510651,-0.2313257,0.3328492,0.6255877,0.10945555,-0.11855401,-0.021354822,0.07272707,0.1183398,0.12859882,0.20923182,0.26301813,-0.096654706,-0.14256194,-0.3232394,0.10988389,-0.029362667,-0.102891326,0.2838491,0.16433762,0.028324718,-0.044143036,0.088796474,-0.29397604,0.09172868,0.011399619,-0.18603298,0.009461537,-0.19448349,0.081112534,-0.097048074,0.14260389,0.19347523,0.20928971,0.10073374,-0.16100089,0.03444942,0.19452214,-0.05860394,0.45058075,0.1945683,0.08814722,-0.001419816,-0.03212836,0.20539929,0.2860496,0.1016036,0.0029777898,-0.013436857,-0.2055875,0.21195039,0.07589846,-0.16161545,-0.027368689,-0.003502503,-0.15047874,-0.16779885,0.11441342,-0.17732133,0.20301858,0.0869581,0.39773324,0.09596941,0.15414391,0.021939494,-0.054278508,0.09711303,0.027479826,0.26996824,0.020698376,0.13223162,-0.2166266,0.1885609,0.17809945,0.16788144,-0.16133687,-0.0025957772,0.31408164,0.14499137,-0.18586047,0.17462681,0.14207502,0.09849431,-0.1293819,0.044253856,0.2600184,0.103709124,0.12972546,-0.32849613,-0.11432192,0.07539343,0.13014936,-0.07784885,-0.442712,-0.024785737,-0.014200162,-0.21614021,0.05198227,0.040014695,-0.027955113,-0.08412065,0.03808417,-0.1149547,-0.13229285,-0.064892165,0.13796361,0.13034783,-0.338626,-0.033254877,0.43451095,-0.018016247,-0.035738513,-0.11030018,0.044618763,0.15015842,-0.035024803,0.034067262,0.056531407,-0.11260551,-0.030802058,0.10647588,0.06499128,-0.08997873,-0.08818524,0.060895354,-0.18075922,-0.014641158,0.22186208,-0.07424801,0.18327254,-0.10915973,0.09556932,-0.19875316,0.027945105,0.16174069,-0.0033813682,-0.24747565,0.027547479,-0.09302384,-0.026494864,0.2067185,0.09482478,-0.11772374,-0.121235594,-0.22337477,-0.24822438,0.04145891,0.18977612,0.33461282,-0.34092355,0.1714199,-0.09562082,0.108122855,-0.27044076,-0.089037366,0.27983466,0.0326163,0.10417313,-0.14540556,-0.12640062,0.0067459024,-0.13318841,-0.2213538,0.01266915,0.19646019,-0.110931225,0.14145878,-0.0105381515,0.2572628,0.093924366,-0.016992671,0.08947558,-0.031208375,0.13640095,0.1561266,0.35509416,0.07011145,-0.092567734,-0.20224538,-0.022685785,-0.046188105,-0.003248665,-0.037829198,-0.1450038,-0.103775375,0.006505308,0.15928754,0.06163723,0.1895011,0.33117,-0.1395859,0.36881104,0.08524996,0.060047574,-0.14830299,-0.2330848,-0.10199321,-0.15124565,0.08455648,-0.24470946,0.14470264,0.2824425,-0.21429941,0.13003343,0.15989925,-0.11203788,-0.19231558,-0.13591999,-0.014651636,-0.073937446,0.108438924,-0.29487208,0.1956914,0.07737404,0.0711373,0.07443224,-0.29170564,0.058292776,0.01933144,-0.2056411,-0.053924795,0.08881493,0.13400395,0.13663974,-0.01912352,0.10546972,-0.26949137,0.034790628,-0.023787532,0.057452455,-0.26651633,-0.004060647,0.18879858,0.35670945
人物,0.18039013,0.1577523,0.12062301,-0.1144796,-0.09231018,-0.22822495,0.118638106,0.10592531,-0.030242663,-0.18212044,-0.16272534,0.11566069,-0.043795507,0.07280469,-0.26865754,-0.004958954,-0.10177971,-0.19227338,0.13218692,-0.31401217,-0.18359594,0.2782736,0.27241504,-0.29125556,0.060098507,0.06330289,0.036624625,-0.42714715,-0.008115314,-0.004666838,-0.31610906,0.07802845,-0.22055244,0.0175408,0.029144652,-0.5839537,0.12562075,-0.006992094,0.15366586,-0.091749355,-0.03387379,-0.00420978,-0.20924862,0.25467682,0.098546006,-0.020448318,-0.08159155,0.22284935,-0.40485275,0.15777132,0.27072898,-0.040859476,-0.27313057,0.032017983,0.031056702,-0.057947457,0.038551126,-0.19088988,-0.18931217,-0.20655258,-0.38846278,0.28562522,-0.20626286,-0.06259716,-0.18407519,-0.0033496912,0.18194118,-0.25800017,0.15675847,0.19701158,-0.14147943,-0.21506324,-0.12202478,0.08637337,0.012372701,0.020978032,-0.09333021,0.18277372,0.20169702,-0.16834445,-0.11196608,0.17090937,-0.29496548,-0.08464457,0.08295501,-0.04605095,-0.08809715,-0.1502572,-0.15175526,-0.0086786775,-0.21310121,-0.21645355,0.18010032,0.1205817,0.20701003,0.14344566,0.18272056,-0.15969118,-0.019216416,0.18079229,0.15364654,-0.13702397,-0.020144535,0.053337846,0.26940688,0.1691866,0.070009954,0.11526967,0.29903767,-0.12698919,0.062210057,-0.07979866,0.2348039,0.05171619,-0.11309714,-0.08965907,-0.043619588,-0.32528993,0.014277578,-0.16426612,-0.10767548,0.17069042,0.029483404,0.17263032,0.12861222,-0.06467182,-0.16273913,-0.12668152,-0.127441,0.02128218,0.21923512,0.18595468,0.21225168,0.0849814,0.09637905,0.012155856,0.0058886185,-0.028922075,0.16349117,-0.07115956,0.06924941,0.16922078,-0.26550874,0.4236417,-0.011200323,0.09767996,0.24115962,-0.02387014,0.23848584,0.13129537,0.4352456,0.14322792,0.14467046,-0.18917988,-0.002975005,-0.022143157,-0.08501616,0.0060980977,0.11172491,0.060742617,0.04108205,-0.05419935,0.11928536,0.04260515,0.14746164,0.09722616,-0.00921734,0.034750763,-0.15579735,-0.14307322,0.33984864,-0.10468238,-0.20824865,0.004191936,0.1233052,-0.06019981,0.06653904,-0.033252176,-0.08878192,0.018975299,-0.26570314,-0.15660855,-0.034633953,0.06514192,3.636503E-4,0.28723082,0.03003073,-0.14288178,-0.39752132,0.3063111,-0.06288212,0.01642235,-0.24725129,-0.06569526,-0.1934285,-0.10394722,0.13954209,-0.08277358,-0.04047675,0.18179923,-0.12995528,0.23801164,-0.16108255,-0.10531007,0.009027222,-0.024054123,-0.09316352,0.18646406,-0.1421712,-0.017755704,-0.0129162455,-0.19926752,0.10568607,0.051668912,-0.018326523,-0.16507278,0.23934703,-0.19141425,-0.07118001,-0.22115573,0.20233142,-0.13343635,0.25313598,0.1408984,-0.09189437,-0.016456736,-0.10072031,-0.22751799,-0.0834018,-0.30554178,0.01092177,0.08198715,0.18338701,0.1368255,0.05525236,0.15719402,0.04133459,0.38575473,0.2752087,0.00450277,0.29479218,0.23880291,0.062038016,0.037357796,0.17612705,0.5423065,0.0277981,-0.21248104,-0.09724205,0.20398177,0.09482783,-0.024967102,0.266813,-0.087625444,0.0877923,-0.04258435,0.14033781,0.23017406,0.01140348,0.09154669,0.20753402,0.03947326,-0.21822695,-0.3809242,0.15510766,-0.0329562,-0.09959553,-0.020208895,0.12929323,-0.09837613,-0.058221865,-0.11755366,-0.30413437,0.03374438,-0.05545031,0.30766967,-0.02667585,-0.13713314,-0.22681932,0.019448927,0.037705004,0.26745734,-0.10804752,0.11026468,-0.011150502,-0.16598172,-0.13669649,0.13722335,-0.055854514,0.23235266,0.24537659,0.1052629,0.09880333,-0.060889684,-0.06124181,0.18919004,0.15757248,0.21440308,0.2975486,-0.43862382
6厘米,-0.2702417,-0.22030722,0.08009939,0.0052023763,-0.119225584,0.087348014,0.22023621,0.2238505,-0.1811804,-0.15174754,-0.09976905,-0.07637394,0.14390515,0.016870499,-0.1300772,-0.024997175,-0.035441436,-0.199624,0.060892176,-0.0028390598,0.25389588,0.32912645,0.53869444,0.19791137,-0.12973583,0.052686747,0.11599843,-0.082098596,-0.1368111,0.099745475,0.047750324,0.001134398,0.25899178,0.23827523,-0.12506601,-0.14291085,-0.16719154,-0.1639679,-0.049221046,0.043014158,0.4407991,-0.25370973,-0.040619954,0.07416059,-0.18304972,-0.17045069,0.10007359,0.044388056,-0.041956052,-0.10948486,-0.08830683,0.23113233,0.0074049113,0.015491947,-0.12124053,-0.011405336,-0.32088074,-0.0372924,0.22107556,-0.3040883,-0.22690667,0.1042014,-0.5051946,0.16327685,-0.1749986,0.11826376,0.41240096,-0.12406612,0.17290998,-0.0073390184,-0.12149171,0.18089002,0.033044655,-0.19837363,-0.0312545,-0.13355489,0.21471915,0.23427543,0.3988543,0.052215215,-0.0380758,0.19272724,0.09607181,0.03183685,0.06614558,0.3025365,-0.068407506,0.20134768,0.20288824,-0.16363789,-0.15572187,-0.30258566,0.19826937,0.08520923,0.20839113,-0.059833575,0.30710655,-0.18606663,-0.15904403,-0.057230182,0.22349547,0.0031943256,-0.05551385,-0.22292462,0.22337165,0.04267682,0.0883485,0.6610388,0.410994,0.14951465,0.22597702,0.0878922,0.17941183,-0.07406271,-0.22804934,-0.080784686,-0.17811626,-0.23460607,-0.12930943,0.12366001,-0.2018107,-0.25232014,0.036733467,-0.037375927,0.18746479,0.08382433,-0.04574193,-0.14717905,-0.36562616,-0.1695697,0.20273761,-0.023693172,0.047413632,0.16758198,0.2846688,-0.25659096,-0.06404392,-0.07791431,-0.07629785,0.18098603,-0.040375564,0.23871763,-0.053705472,0.21368828,-0.17212492,0.2651124,-0.2770078,-0.07535619,0.13090831,-0.029729322,0.11488908,-0.14907053,0.030116098,-0.17003535,-0.10207339,0.16696697,0.31477395,0.16988252,-0.010390109,-0.07031937,0.11619512,-0.20406495,0.2400491,0.40170544,-0.033677492,0.021061318,0.15819405,-0.5301897,0.0074481815,-0.015800167,0.09674594,-0.039268848,-0.33847505,-0.022451192,-0.062444016,-0.029739855,0.33758077,-0.006451184,0.35309973,-0.11915207,-0.05325272,0.15020402,-0.039365496,0.28358415,0.010451057,0.16165107,0.11248142,-0.12517627,-0.0068633547,0.25439087,0.045001317,-0.1584054,0.04303749,0.36198694,0.21375644,0.05671692,-0.11751635,-0.058838177,0.17022729,0.26576295,-0.106868505,-0.19306101,-0.02844094,0.1153099,-0.29099992,-0.014792553,0.24983166,-0.17003681,0.14044742,-0.07726641,-0.02931923,-0.21310756,-0.14231986,-0.21385741,0.14828336,0.23899779,0.35560244,0.34734812,-0.28230587,-0.10665392,-0.1753611,-0.018229945,0.12178514,-0.15412821,0.3239288,0.2167086,-0.09353861,0.2089457,-0.284082,-0.019703956,-0.010345696,0.049787425,0.23135369,0.1429863,0.22540827,0.020001933,0.053631186,0.14610527,0.15523942,-0.3024335,-0.077633835,-0.16570252,0.33475336,-0.1815086,-0.032185033,0.095469326,0.16916767,-0.02524239,-0.21619047,0.0878498,-0.01466969,0.14029434,0.22343944,0.039372884,-0.038000766,-0.17375778,-0.085460365,-0.067222185,0.05542094,0.1704994,0.031526208,0.22070667,-0.113985054,-0.09269962,0.44861463,0.17852157,0.21442777,-0.08903294,-0.2598465,0.23372051,0.16395032,-0.33217317,-0.067993686,-0.1920578,-0.31571087,0.115840405,-0.35954374,-0.031656537,0.007171462,0.19889913,-0.31233916,0.26440153,-0.3555264,0.30865034,0.0038772486,0.104421034,-0.31301564,0.19463602,0.058784854,0.123930834,-0.020575866,0.03520472,0.32659304,-0.058247168,0.008930895,0.16474555,-0.06544517,0.2356956,-0.12917519,-0.20596366
窗台边,0.1688915,0.035571802,0.014156977,0.10200227,0.06909324,-0.17122507,0.20206666,-7.4531103E-4,-0.004961165,0.17324488,-0.16944808,0.19365293,0.053761546,-0.06268259,-0.011783422,-0.03529089,-0.055556748,-0.05659107,0.057716515,0.07153852,0.0392225,0.11245534,0.031110233,-0.032772824,0.009551652,0.1714373,0.17879604,-0.032034885,-0.16333544,0.1794213,-0.04289828,0.1731975,0.1178426,0.23418242,-0.0049950625,0.063341506,-0.068057716,-0.14708145,0.0068811406,-0.05279584,-0.108837426,-0.04624393,0.17449427,0.14684047,-0.1789934,-0.19348486,0.077791214,-0.08798689,0.045729656,-0.09659806,-0.099492006,-0.17154056,-0.0711624,0.07879179,-0.13224047,-0.15414137,-0.22183302,0.08160508,0.030715596,0.1276071,-0.21634749,0.13404839,-0.16213457,0.034149095,-0.26367113,0.050799124,0.103493445,-0.029029133,0.13970578,-0.09841561,0.07172565,-0.032019015,0.09997463,-0.021370914,0.08250419,-0.10308392,-0.05660181,-0.04770519,0.120067514,-0.07524425,-0.20752612,0.15325142,-0.15552224,0.10503398,0.10830066,-0.27392775,-0.067048445,0.052312322,0.14835432,0.075615965,-0.21989527,-0.050763413,0.09212987,-0.22581689,0.008271991,0.03043318,0.14071335,0.003966432,0.04353099,9.3062955E-4,-0.02731453,-0.20485877,-0.016910234,0.1304861,0.093636,-0.16105016,-0.023435818,-0.09061911,0.018100362,0.056002505,-0.055195525,-0.019522782,0.3201713,-0.101537704,-8.6477277E-4,0.07259589,0.037679188,-0.1982815,0.030267937,0.038368966,-0.41903722,-0.17650174,-0.048991136,-0.07490596,0.11548581,-0.078177534,0.17192584,-0.1455678,-7.2346145E-4,-0.03470183,-0.116799586,-0.198108,0.30031553,0.018403333,-0.117830075,0.123446085,-0.2607394,0.024256384,-0.23567834,0.20378114,0.14324662,0.099319406,0.047563042,0.015588577,0.08845704,-0.14933619,-0.009044767,-0.1193102,0.032169838,-0.09692188,-0.0073704957,-0.051377937,0.26822576,-0.025108635,-0.05398222,-0.1771221,-0.057901524,-0.16721067,0.08242313,-0.03900482,-0.0647767,-0.13808715,-0.108333886,0.08903621,-0.07526052,0.0033934047,-0.07121109,0.0024623692,-0.13948509,-0.046192426,0.22430696,-0.10888828,-0.023854205,0.23926261,-0.19209154,0.052197482,0.025420517,0.010408376,-0.13070399,0.060405906,-0.1698999,0.17646271,-0.08053496,0.16026689,-0.001599157,0.13466974,0.030082513,0.17378613,0.11736618,0.028387293,0.035480913,-0.14962529,-0.11273743,0.0715559,0.10510573,0.0043640495,0.0036690403,-0.09487373,-0.2591212,0.0076999012,0.13380161,-0.06986156,-0.00234668,-0.016372964,0.032565914,0.16438746,0.12729427,-0.10796613,-0.011705533,0.0051163835,0.025850747,-0.06619265,-0.10250308,-0.05501457,-0.06374358,0.14900628,0.019356186,-0.15115784,-0.16794558,0.08913686,-0.061758243,0.037048403,-0.09389162,-0.007478356,-0.047242157,0.269307,0.21888544,0.08852736,-0.098782025,-0.014674361,0.10230213,0.058588993,0.21667777,-0.10333275,-0.14137226,0.052272208,0.008859853,0.08653821,-0.06378798,0.166462,0.008197808,0.045126963,0.1575549,0.24007489,-0.0957435,0.27335,-0.10037159,0.1822215,0.077084236,0.15194179,0.030044641,0.022005362,0.20843923,0.015406318,-0.12040066,-0.062771626,0.16305491,-0.092619896,-0.12014851,0.124411516,-0.06271142,-0.06215417,-0.014462208,-0.047008406,0.2040612,-0.032093465,0.0058856094,0.18391737,-0.17093644,0.139713,-0.06491835,-0.23925182,0.018216023,-0.18208078,0.25476366,0.07543312,0.032227367,0.035928156,0.0663217,0.09086647,0.13310726,0.20125474,0.042526793,0.045695454,-0.11766713,-0.23271994,-0.15582985,-0.053764336,-0.03569462,0.06021941,0.03776543,0.07043347,0.13273798,0.28205195,-0.07898568,-0.0083432235,0.11111159,0.23757558,0.041194454,0.07663392
没技术,0.01959378,0.17841902,0.1262835,0.23425932,-0.14488131,-0.18642,-0.048042912,-0.17361155,-0.37081534,-0.06983302,-0.071822904,-0.09100248,-0.20756349,0.30691102,-0.0054716957,-0.10372041,-0.035498857,-0.12769763,0.1548156,-0.09811727,0.10467266,-0.11460029,-0.012291694,-0.19193007,0.0036033355,0.24515863,0.029156104,0.045897253,-0.11354727,0.13017254,-0.13066524,-0.03071137,0.3058324,-0.25047654,-0.19354966,-0.03757388,-0.0180872,-0.34116027,0.1344586,0.0064840475,0.27264172,-0.5413119,0.054367363,0.27106968,-0.0028766782,-0.21734929,-0.3697274,-0.086678684,0.0945365,0.19540334,0.30647406,-0.07278073,0.1273684,0.06869887,-0.108085416,0.3045934,0.16936022,0.21548401,-0.17287986,-0.13657716,0.20249557,0.21402074,0.09087928,-0.3495703,0.02789931,-0.14416957,0.19282366,-0.13034722,-0.1524345,-0.056316413,0.020629609,-0.31347775,0.033183604,-0.11784034,0.005201863,0.23138699,0.34231323,0.01939464,-0.1992985,-0.05153628,0.112154454,-0.0027713554,-0.03011533,-0.23060568,0.3581468,-0.037715133,-0.015772294,-0.1634912,-0.09883314,-0.20334429,-0.13251364,-0.12899844,0.40690047,0.0958956,0.057244837,0.2770052,0.32698897,0.0452569,-0.086950876,0.16564456,0.04922143,0.119075805,0.2013293,0.27947065,0.34258378,0.11007907,-0.10951867,-0.047452778,0.08490995,0.45614165,-0.14278193,-0.017143192,0.50040305,-0.04721414,-0.07139156,-0.27445084,-0.07285002,-0.2673202,-0.09645012,0.07107395,-0.35082978,0.06386972,-0.30552664,0.3224583,-0.049436893,0.14720623,-0.32086766,0.43899995,-0.1748314,-0.09870157,0.32895222,0.09656789,0.027275963,0.3947178,-0.062933914,-0.2399917,-0.20450802,-0.12471595,0.20376381,-0.35314757,0.44699824,0.18348134,0.4854205,0.12363117,-0.09705091,0.08587068,-0.32118747,-0.23983495,-0.01632539,0.1266797,-0.09968087,-0.16913095,0.28571627,0.009471125,0.28003597,-0.17219085,0.06744402,-0.023968069,-0.09394434,0.020959554,0.20375857,-0.117342986,-0.008441722,0.35610908,0.008181511,0.051916145,0.049234863,-0.1760628,0.07423553,0.22924145,0.19014,0.027072625,-0.28650063,0.103191786,-0.04390631,-0.058050804,-0.12142554,-0.1381959,0.115781695,0.082402475,-0.24069482,0.16326633,-0.21823029,0.17585564,-0.06283513,0.33463886,0.13410246,0.15044278,-0.107683145,-0.23120736,0.27577743,0.055742808,-0.1941397,0.18204144,-0.38381055,0.07443636,0.19352065,-0.32522157,0.07461143,-0.11677412,0.05986622,-0.008957548,-0.1225401,-0.34053737,0.0032873633,0.15712179,-0.030743636,-0.082327984,-0.104920246,0.02085016,-0.09283985,-0.35896552,0.049843907,0.022821022,0.20309444,0.20173144,0.27417037,0.07443752,-0.07339002,-0.24998789,-0.2550136,0.31250212,0.12730554,0.029133633,0.07426638,0.2643873,0.2867699,0.07265926,0.26114497,-0.01698463,0.067497715,0.046549626,0.009072252,0.16377406,0.15516938,-0.020669306,-0.122093044,0.2648077,0.33065194,-0.03678304,-0.06795049,-0.18045056,-0.5330801,0.14989686,-0.18185514,0.07982114,0.06481725,-0.24337767,0.21526875,0.59639245,0.3551311,0.008397068,0.24311315,-0.037560556,-0.013047145,0.314217,-0.09293508,0.016524622,-0.13600637,-0.0905999,0.08433942,0.18602358,-0.18539242,-0.4563926,0.2752455,0.22172005,-0.28270236,-0.02848507,-0.023017721,-0.026702717,-0.25415125,-0.27091244,0.017371869,-0.4050461,-0.06765285,0.1648911,0.17474252,-0.17599869,-0.24589603,0.053057652,-0.15660264,-0.13804771,0.053470623,0.18715903,0.1947187,-0.094238885,0.0075469,0.14368133,-0.50289303,-0.3966289,-0.07270178,-0.34286729,0.018903442,-0.036143694,-0.022507079,0.16174942,-0.105460875,-0.064248346,-0.039976727,-0.17398992
数二,0.11872153,-0.10845599,0.30302888,0.006078203,0.25310484,-0.45147845,0.17477739,-0.16372684,0.16052364,-0.01246245,-0.28645542,-0.042470243,-0.26738212,0.05626139,-0.0052194986,0.29137447,0.0022783787,-0.017319674,0.2510938,-0.13850655,-0.031479016,0.05956849,0.12562728,-0.08747323,0.03408519,-0.055478085,0.32255852,-0.03621873,-0.20334567,-0.18334644,0.25080723,0.43553585,0.057942174,-0.13094625,0.04230076,-0.0603196,0.0042359363,-0.44356814,0.0069166566,-0.18060593,0.046853743,-0.116587296,-0.1330308,-0.06529848,0.051730443,-0.10968143,0.024995646,-0.0975227,0.13963047,0.28139243,0.14417483,0.2402612,0.18495676,0.18192859,-0.054679707,-0.0744352,-0.17424324,0.13453501,-0.112767436,-0.06317467,0.093207814,0.07980262,0.13678205,-0.16014174,-0.11365616,0.20528282,-0.053062726,0.05701881,-0.33645433,-0.009058486,-0.17579529,-0.12836316,-0.08398445,0.17605907,-0.17861287,0.16553584,0.2661109,-0.303991,0.07219368,0.043518294,0.26383877,-0.30378902,-0.04070192,0.09421302,0.4093499,0.16206248,-9.115689E-4,-0.16800615,0.015216109,-0.08649451,0.12829062,0.121194266,-0.10388275,-0.04456481,0.3239823,0.20561135,0.24599414,-0.014596861,0.033889715,-0.09679522,0.09206348,0.21138048,0.37253705,0.038134232,0.20618273,-0.03441705,-0.14113724,-0.018157993,0.30524656,0.21921097,0.049137343,0.09023335,0.05567966,-0.24236605,-0.26183867,-0.11343242,0.18904838,0.05021532,-0.06171782,0.26169056,0.18313919,0.067375354,-0.23070627,0.39006722,-0.119535014,0.14590985,0.1916629,0.09648764,0.07943919,-0.20477498,-0.004265449,0.004542974,0.14105916,0.1051898,-0.4096741,-0.10101598,-0.17029664,0.2722739,-0.14332561,0.06188728,0.015644973,0.1374259,0.20505954,-0.12458954,-0.2585241,0.3020149,0.20304438,0.1107372,-0.201258,-0.023650596,-0.07059229,0.029122079,-0.16636118,0.08951957,-0.2564296,-0.11333325,-0.10000094,-0.016530521,-0.24915813,-0.07504603,-0.004538775,0.13866618,0.23685172,0.12517765,0.24493034,0.06738509,-0.15825962,-0.061084047,0.081147045,-0.015298285,0.012469155,-0.037702482,-0.26162776,0.09741777,-0.017345002,-0.14948231,0.20948792,-0.08539322,-0.12803645,0.043195117,-0.1361797,0.31319982,0.026111184,-0.011875701,-0.071590215,0.25523368,-0.0064950744,-0.33080098,0.109748006,0.08004742,1.7575477E-4,-0.020893,0.15117231,0.08471704,-0.12433242,-0.19576482,-0.04992109,-0.09675469,-0.07605307,-0.18495218,0.09192879,0.17246889,0.009915233,0.3429913,-0.04146212,0.07072782,0.2648977,-0.06605209,0.12583676,-0.17017145,0.21836077,-0.20479508,-0.25692812,0.021010365,0.15852445,0.028326295,0.16815187,-0.0071082297,0.13606046,0.03526474,-0.28042927,0.03358897,-0.031308603,-0.17760523,0.0116548855,-0.070297785,0.09396654,0.009319536,0.023944056,0.0032025517,0.47814018,0.11865361,-0.039104376,0.18162856,-0.054033414,-0.11846987,0.18863446,-0.010064684,0.25230452,-0.34056464,-0.030492632,-0.014957876,-0.112061866,-0.040008675,-0.09084994,4.826383E-4,0.38862452,-0.111877404,0.010710925,-0.09590096,0.33725733,0.17544179,-0.077816635,-0.21893515,0.17586839,-0.103189416,0.13350609,-0.12531745,0.32988477,-0.081218846,-0.2748468,-0.017846303,-0.023309022,-0.25302118,-0.12358026,-0.052889533,0.062488936,0.056570124,0.012678935,-0.071057394,-0.07221752,-0.30352858,0.2124549,-0.28756672,0.24558246,0.2943143,0.014811744,0.18445958,-0.4462238,-0.02863123,-0.043684427,-0.10829281,0.06643171,-0.053472955,0.3687304,0.110040806,-0.08917531,0.033778124,-0.16013122,0.3941472,-0.047756243,-0.122906454,0.24960737,-0.07800658,-0.22442177,0.06065093,0.04103133,0.025520345,0.38831574,0.07177647
适时,0.19581646,0.16744664,0.071656205,0.095536776,0.19792117,-0.025715364,-0.08703118,-0.117000304,0.5507002,0.10539196,-0.09730067,0.2340708,0.0101932,-0.07977425,0.0509429,-0.014129912,-0.3038449,-0.13242601,-0.085500754,0.096359864,-0.050522216,0.024761714,-0.0031419718,0.046393674,0.03256783,0.24977446,-0.082581975,0.042824283,-0.26890007,-0.2057641,0.14105906,0.22656855,-0.14487833,0.033405885,0.033874474,0.023902107,0.43306226,-0.3427968,-0.1193021,-0.14790876,-0.20489694,-0.40855253,-0.052368738,0.17608091,-0.0201778,0.17521665,-0.41609198,-0.0721517,-0.047480945,0.11182678,0.43478546,-0.40122262,-0.14517203,0.14728963,-0.049434256,0.38320988,-0.29137918,-0.012698846,0.11587038,-0.31304824,-0.18586196,0.28837228,0.012683694,0.10033594,0.037188612,0.13712806,0.5656939,-0.24726199,-0.0759864,0.43152803,-0.023531826,-0.2834828,0.0011800554,-0.060680803,0.104176044,0.27345666,0.36228168,-0.014439481,0.37054187,-0.13803887,-0.051154613,0.09846751,-0.3664652,0.28387794,-0.06829704,-0.110071056,0.14491963,-0.1743013,0.086697884,0.07725135,-0.22227085,0.384832,0.087045275,-0.12320596,0.13962077,0.20962149,-0.14288208,0.0024520878,-0.11449661,0.06565238,-0.1793376,0.07872652,0.05725572,0.04301314,0.3918968,0.25418887,0.3461286,0.115843385,-0.06155015,0.075777575,0.13190101,-0.0638105,0.18384562,0.19082677,-0.07213847,-0.15971091,0.37510967,-0.060888708,-0.06655498,-0.17381899,0.3936551,0.1806582,-0.09175263,-0.0047216956,0.29836527,0.31949732,-0.11221076,-0.08199292,0.12163967,-0.03508008,0.20456336,-0.24920654,-0.13361976,-0.14631154,-0.08231073,-0.04620943,-0.01902218,0.32028225,0.45771214,0.06684218,-0.052725248,0.28681108,0.10780399,0.045922924,0.21117061,-0.14133668,-0.10661211,-0.008764852,-0.3213716,-0.038763728,0.29940474,0.20108284,0.15861697,0.25039116,-0.16674304,0.08248412,0.055585057,0.02593096,-0.04494326,-0.383948,0.06984467,-0.20603074,-0.18527715,-0.18827751,-0.08700751,-0.2232386,-0.24613385,-0.033189107,0.32443777,-0.269969,0.10593299,0.007821107,-0.016520701,0.35350412,0.006982396,0.111575924,0.16708681,-0.18503195,0.12308571,0.09562217,0.25145745,0.055256065,-0.21672307,-0.37117732,-0.08877849,0.27267656,0.24431731,0.2727759,0.066283666,0.053705875,0.13101806,-0.025863789,-0.12405915,-0.084588,0.2255057,0.0038740227,-0.08501604,0.2349833,0.124843635,-0.11830428,-0.08874751,-0.35438728,-0.01487799,0.4688112,-0.43962923,-0.11681792,-0.13062112,0.18825255,-0.5909603,0.16744131,0.17370872,-0.099281855,-0.27295634,0.18319355,0.14269708,-0.37531722,0.43091738,0.111307964,-0.014990264,0.07879801,-0.029997252,-0.012324415,0.10793807,-0.28877717,-0.04994538,-0.022485696,-0.21811868,-0.013411854,-0.18349634,-0.09454463,0.07252972,0.015983596,0.3363879,0.12526982,0.094081655,-0.2935037,-0.0641789,0.08415159,0.13223885,-0.098930806,-0.037973076,-0.20057787,0.30369344,0.21241601,0.2835291,0.08757091,0.17569649,0.12535393,0.37339142,-0.13650872,0.054643676,0.05183673,0.0803388,0.13595222,0.16494602,0.12707356,-0.07041436,-0.17413993,-0.20962428,0.2057014,-0.0017616507,0.28663927,-0.12543447,-0.1383166,-0.2639045,-0.027093964,-0.079904206,-0.30466774,-0.037108094,-0.014122816,-0.10016609,-0.17299174,0.121412724,-0.36375275,-0.33665252,0.30086944,0.27074647,-0.49038884,-0.11651063,0.055087194,-0.016639333,0.011848024,-0.20214337,-0.2505788,-0.07481753,-0.27049583,-0.21534751,-0.11360601,0.04985644,0.059386622,0.030352276,0.60764414,0.0832295,0.27753198,0.09888504,0.018924994,0.3180902,0.3233785,0.02252239,-0.29727098
真懂,0.2416592,-0.017760217,-0.05444332,0.22718084,0.04097382,-0.075907715,0.36502525,-0.26823038,0.020361824,0.038038813,0.18930605,-0.086873256,-0.058439944,0.116312444,0.20468187,-0.013471446,-0.108712375,0.05062134,-0.17699918,-0.062297672,-0.011889633,-0.11873361,0.05682288,-0.022703458,-0.043760218,-0.022745185,0.10945117,0.022221059,-0.13980883,-0.034311447,0.06481467,0.010654149,0.14800039,0.035611466,-0.13637318,-0.2565735,-0.25967184,-0.051548652,0.050375897,-0.06189773,-0.024642473,-0.11018438,0.06409522,-0.07356145,0.057867326,0.0054095397,0.0102915,-0.17459825,0.050135538,0.03470568,-0.031304587,-0.040663715,-0.0913424,0.18674032,-0.14060149,-0.09342343,-0.25123575,-0.0379167,-0.20377898,-0.28148073,-0.11643732,0.12053607,0.06824023,-0.11263008,-0.079765536,-0.028250681,0.22156288,0.06927224,0.13779874,-0.064163975,-0.07975322,-0.37157774,0.1828886,0.0036587075,-0.094845906,-0.30192897,-0.10434698,0.020090358,0.16938274,0.04211679,-0.0046557933,-0.017828573,0.14269066,0.12821105,0.3071616,-0.079993054,0.14567192,-0.11634368,-0.004510658,-0.07616401,-0.1285594,0.14826287,0.23409879,0.121196814,0.10719073,-0.06546262,0.23064046,-0.11743506,0.04466657,-0.111448586,0.067345865,-0.009689916,0.08946582,0.039122924,-0.052050065,-0.20949616,0.12366465,-0.042998366,-0.037828546,-0.252996,0.034844294,0.113912545,0.031676415,-0.120598465,0.0010142083,-0.010516362,-0.11497813,-0.12477842,0.1675211,0.22430383,0.08207538,0.067220695,0.0019766174,-0.038191237,0.23314242,0.18862276,-0.10596664,-0.1933477,0.1840085,-0.027760234,-0.1291777,0.029996326,0.2991466,0.016235594,0.06475395,0.014859914,0.07138326,0.15564568,0.075292096,0.1086184,0.24101286,0.26552814,0.036483303,0.13574249,0.03893192,-0.113763176,0.19362131,-0.06586495,-0.27862725,-0.14309326,-0.25277025,-0.209431,0.12459889,-0.12948546,-0.031024618,-0.008642669,0.08457187,0.19476368,0.116926044,0.064481065,-0.14632337,-0.31823048,-0.09709338,-0.09938606,0.29278544,-0.0030492488,-0.06916561,0.032728504,0.1570476,-0.030420572,0.21623543,-0.017888874,-0.043011002,-0.038977183,0.21637282,0.07384034,-0.15504676,-0.17608406,0.21072349,-0.19059384,-0.23612812,0.18522198,-0.18020606,-0.012137148,-0.083185576,0.04623807,-0.042920023,-0.039553512,-0.07915849,0.06205801,0.16509712,0.17568009,-0.32075867,0.1028544,0.108066276,0.03261998,-0.11705105,0.033456277,-0.13718984,-0.068195924,0.11156346,-0.056234907,0.051946044,0.13730879,-0.06737378,0.15218937,-0.12864469,0.038666207,-0.16566277,-0.21022421,-0.11500949,-0.20354906,-0.071935564,-0.011429928,-0.15498759,0.05283714,0.30167744,0.12739752,-0.046101335,-0.015487332,-0.08913281,-0.12098868,0.14993449,-0.14007543,-0.07817529,0.2733586,0.17090505,-0.11649607,-0.19500443,-0.07468569,0.1161948,0.056436364,0.06958276,-0.018981291,0.06708209,0.08054884,0.14026311,0.028012438,0.015993778,0.22488931,-0.005833785,-0.15059283,0.19750808,0.0758708,-0.09128399,0.05907119,-0.017055256,0.03917294,0.21348327,-0.066671066,0.18216659,0.06877537,0.03530911,0.3968728,9.2385174E-4,0.027122281,0.044579346,0.041036505,-0.22405864,0.2734644,-0.13837779,-0.19231923,-0.1740364,0.19015627,0.030656131,-0.02626399,0.20529644,-0.22287868,0.30216548,-0.10650812,-0.39401934,-0.21312787,-0.1477087,0.10318823,0.114397004,-0.062189627,0.060339853,0.05074348,0.15480974,-0.12939061,-0.20335692,0.0037937541,0.033900876,-0.19137928,-0.29367173,-0.1519918,-0.006614935,0.08447006,0.012682984,-0.018152975,0.08923894,-0.04031737,0.025997456,-0.012316093,0.08753471,-0.05685529,-0.030438269,0.028384132,0.022591384,-0.12728237
音响效果,-0.11687194,0.0772876,-0.095352136,-0.1313377,0.10377478,-0.23528655,-0.10670035,-0.3059658,-0.08105436,0.09076869,-0.25783923,-0.10169813,0.24426416,0.03495788,0.15249719,0.042167496,0.19298597,-0.0062676305,0.13202317,-0.1992121,0.16404165,-0.06093069,0.17655091,-0.076191135,0.04405977,-0.17378737,-0.26946324,-0.2302534,0.075847134,-0.04979947,-0.04278091,-0.014809141,0.0839156,-0.0076875966,0.028446574,0.19786029,-0.09236025,-0.04483864,-0.07612988,-0.17220134,-0.17880864,-9.690914E-4,-0.36456466,0.04551085,0.008842218,0.07403076,0.015068501,0.22542322,-0.18187244,0.110469684,-0.013510023,0.24505231,-0.0020718493,-0.20448714,0.023147652,-0.030284153,0.028591162,-0.012641072,0.23873512,-0.11748221,-0.1227046,0.19714269,-0.16170055,-0.10031715,-0.016656304,0.23536195,-0.16456789,-0.23051593,0.15838431,-0.018238002,-0.11851134,-0.1928909,0.014962133,0.080319114,0.03452198,-0.016700847,-0.004094829,-0.0154376915,0.0012761729,-0.010500996,-0.109047584,0.19005662,-0.12287274,-0.3679376,-0.17123513,0.14264351,0.0016028299,0.2668194,-0.10145177,-0.057814542,0.032094438,-0.059120145,-0.08837853,-0.056802355,-0.036105644,0.041781656,0.09783438,-0.13183464,-0.009623923,0.2018286,0.25082812,-0.11485761,0.24922624,-0.0066977125,0.10993694,-0.070833884,0.20419918,-0.14797696,-0.07232109,-0.12853046,-0.16349916,0.17556682,-0.09015983,0.09661066,-0.11368688,-0.06506393,-0.0127684465,-0.03645109,-0.06596228,-0.25257334,0.05713021,0.081135035,-0.19179842,-0.15696827,0.4689432,0.2260635,0.09637595,0.058612525,-0.12651238,-0.14462666,0.07000485,-0.09639793,-0.010655702,0.18440162,-0.066824354,0.1434028,-0.20831187,0.15137422,0.25912848,-0.050700784,-0.2652601,-0.1520931,-0.29340085,0.022146514,0.10391604,0.116801865,-0.065873444,-0.09175816,-0.033420425,0.10609101,-0.105028935,-0.04880068,0.12580085,0.041369345,-0.009820469,0.0054598157,-0.20478384,0.147622,-0.27459374,0.025390808,-0.12059199,0.016774645,-0.26748952,-0.0247356,-0.023245493,-0.06872179,0.07871388,-0.21684651,-0.016491747,0.14718668,0.035003122,0.24958688,0.04350229,0.22524272,0.055220883,0.043585192,-0.03255805,0.10027788,-0.033475682,0.03845189,-0.10661096,-0.05225942,0.014982763,0.21396688,-0.0943894,0.035334393,0.14203595,-0.026784454,-0.26302052,0.13501371,-0.05894062,0.14650367,-0.24834798,0.030995075,-0.24600089,0.2799442,0.16281898,0.0318571,0.25314203,0.28273815,-0.35192516,-0.1178325,0.18592131,0.18809319,-0.20696807,-0.07111949,-0.13812168,0.08949423,0.2287618,-0.16830213,-0.21400703,0.24912094,-0.008939415,0.041113533,0.029143503,0.07650675,-0.0029047104,0.29246268,0.067837715,-0.14880449,0.03627882,0.0982296,-0.009814689,0.13686316,-0.08375465,-0.096266136,-0.025157608,-0.119420886,-0.38147625,0.14898276,-0.12621331,0.0822951,-0.034454275,-0.22984464,-0.13599236,0.2907926,-0.4022281,0.21247284,-0.09502397,0.031630028,-0.03197031,-0.053261045,-0.12753884,0.040049694,-0.1570883,-0.14319399,-0.021716688,-0.22693843,-0.11437647,0.13208257,-0.18592976,-0.0010513602,0.04514373,-0.032773267,-0.13291702,-0.07978131,0.04151357,0.12695113,0.21961029,-0.15709925,-0.072171785,0.032993834,0.14737359,-0.1994824,-0.17746432,-0.0041364967,0.035413302,0.054942615,-0.22667685,-0.24234696,-0.012664132,-0.019652111,0.05231145,-0.17721838,0.19206735,0.16871262,-0.33409816,-0.045331493,0.05891615,0.028177712,-0.100106485,-0.025507579,-0.15287904,-0.41809738,-0.16576038,-0.10727885,0.14902346,-0.07480576,-0.21400493,-0.040180832,-0.2447555,-0.17730938,0.32457235,0.0019904145,0.15707983,-0.19504552,-0.011622717,0.139354,0.07239606,-0.35890865
